3244 11
与 -0.7010721 2.141454 -1.1911741 -1.9956632 1.3856974 0.12405721 -1.6230565 -0.20574522 -3.2374895 0.23375581 -1.6554998
在 0.40184158 0.25548428 -1.5067277 -0.3691365 1.2321186 -0.3093741 -1.3565679 -1.5107343 -0.6685215 -0.09205771 -2.677311
作品 5.0292854 -1.7851577 1.26172 0.95562077 1.6548876 1.1120015 -1.3414837 0.62080425 -1.5298687 0.29190537 -2.2311985
月 5.1994996 0.31197852 1.0811194 7.0052485 0.098843455 1.6772317 5.499574 -1.7410085 -5.3047895 -0.6165367 -4.675275
能量 -4.139343 1.2924608 -5.085451 4.235612 4.124431 -2.2855704 0.09399247 4.8679023 -4.4466643 1.1624448 1.1705159
天使 -4.610972 1.491607 -4.323327 7.379402 3.1635475 -2.4705963 -1.3393446 2.9651906 -1.7258765 1.6013231 -0.41737336
是 0.5751175 1.4943787 -2.3830216 0.9044154 2.9955425 1.223556 -1.4046828 -0.6411385 1.1373717 -1.2818469 -2.3000743
中 -0.3660702 -0.12379354 -2.4388309 -1.1891834 2.3299234 -1.7255037 0.019203436 -2.5015314 -2.006942 1.9272342 -2.1358957
我 0.52988386 1.0903021 -3.3071573 4.342226 2.7490387 -0.56805646 -0.5194646 2.2121997 2.6008377 -2.836239 -2.30999
艺术家 2.2657278 0.108017534 2.1730654 -1.5243894 2.1512427 1.3095394 -2.5868647 -0.10515947 -3.0264704 -0.48847818 -2.4358647
NT 8.165004 -4.503483 2.7163615 7.0455284 2.4711025 2.0417266 0.8433323 4.315466 -2.7166662 0.5053262 -3.6688528
2022 5.178314 2.9341066 3.7492814 0.99227333 -0.236479 -0.3104363 4.5576234 0.4610167 -4.4461546 2.3668666 -2.2501032
活动 -2.641428 -2.0540044 0.84578806 -0.20352042 2.3777075 -0.20792869 5.2043605 4.2040496 -1.4026953 -1.1603184 -1.8214511
000 7.6963825 -3.979606 3.4976034 6.1817765 2.3375368 1.5864477 1.0388159 3.985765 -2.7824817 1.2086952 -3.6588585
了 0.33618465 0.9895852 -2.6830103 1.3178836 0.96943754 -1.3910842 -0.753431 -0.33936948 0.059586767 -0.8269245 -2.6128309
艺文 -1.4365219 0.93758976 4.110775 -2.3969116 2.9511614 3.5426962 -0.3221204 3.9749596 -5.057095 3.7839339 -3.1082366
台湾 1.2158368 2.1809692 0.8111834 -3.166252 1.2758151 1.0223733 0.6379269 -1.1804969 -3.5433016 0.85844266 -2.0109627
灵性 -9.437829 3.92476 -2.1701753 5.4305615 3.056911 -0.9721708 -2.030061 2.8141656 1.4667082 1.3092947 -4.756071
更 6.0967526 -0.10472081 -2.3001218 2.376358 0.019726116 1.0082761 -1.3023828 2.9906132 -0.4210134 0.32790783 -3.8583932
有 1.3093961 -0.2702183 -4.8400044 1.7005708 2.7495651 0.14239278 -1.0408639 1.2567037 -0.6422254 -2.1671803 -1.8890523
展览 -0.7617252 -0.082372405 -0.7694495 -1.8596494 1.3348119 1.9648243 4.025794 -0.13136096 -3.3425272 -1.7964022 -2.3041127
课程 -2.7775161 -2.6966555 -3.374405 2.5669298 -0.037698265 -3.2582397 2.8825657 2.8759727 -0.84252286 1.5304013 -4.262277
美术馆 -1.9722446 6.2581825 3.1177943 -0.3629999 -0.84783167 1.4756049 3.9065588 -0.4265794 -5.5016804 2.345984 -0.055398196
心灵 -7.058493 -1.3870577 -1.8426878 2.6300871 4.2065005 -4.025438 0.6023164 5.82254 -0.937441 -0.81225556 -6.200847
咨询 -7.7824345 6.305906 0.4746686 7.3888483 3.6353638 -0.88340324 -1.8380814 4.3782663 0.9928701 -0.042676117 -1.1712685
也 0.6468963 1.8227801 -2.0115464 0.6843682 3.0069456 -0.9947648 -2.8479002 -1.154461 -0.2513016 -0.7498488 -1.6246556
画廊 1.7477131 -0.38257354 4.823381 -0.31392553 1.8861645 3.013247 -2.1577382 0.1123656 -5.1284566 0.77388346 -1.5978811
2021 3.7247376 -1.6161532 1.220421 -0.8946381 0.7569602 1.2579985 3.455434 -0.3654411 -2.4797597 1.5034767 -2.7626908
更多 6.8326063 -4.042612 4.1638446 5.8099613 2.4448676 -0.06228176 1.2751273 2.9137611 -1.9137381 0.9085621 -3.2323647
当代艺术 1.1245579 5.9732327 2.844948 -1.3544098 0.0716651 1.4210062 -0.12144708 1.4551445 -3.998947 6.8409476 -2.4201982
新闻 -1.6810695 0.46365398 0.28005782 0.0199343 5.5943055 2.6966107 1.0809809 0.8386034 -4.663627 10.912197 -6.516563
上 0.16052224 0.76355743 0.9269418 1.5340579 3.3975232 -2.1897917 -2.4238987 -3.1398177 1.0423359 0.0054661944 -1.6378832
年 2.6910427 -0.0975469 0.45297775 0.53855485 -0.85939044 2.244349 2.499771 -2.692919 -2.5036414 -0.021959022 -2.788069
1 2.3730185 0.16867243 0.6470187 2.059763 0.18811178 0.51615137 4.737983 0.0047273976 -3.3508852 -0.72758144 -0.28245932
3 1.7225883 -1.1977115 0.29178855 5.7009606 -0.09839889 -1.7457513 3.7877738 -1.6822249 -1.7107092 0.25037074 -2.6101997
焦点新闻 -0.08721619 3.5332327 4.649041 -1.5229821 0.04547418 2.2813015 0.21122964 1.3311247 -4.4071865 6.248017 -3.705737
2 1.5827607 0.9134358 0.29557148 4.194981 -0.6509691 -0.52214426 5.108994 -1.0363584 -1.7196969 1.055991 -1.4166231
你 2.4455204 1.3422632 -6.3067 3.4181132 4.13286 -1.7062236 -0.041117653 -0.47175044 0.22274448 -0.6031233 -1.9227234
自己 3.0980299 1.8595923 -5.26297 1.9320173 3.9911218 -0.66275764 -1.0201607 2.151828 2.2039776 1.424122 -3.0507226
将 0.24936073 1.3950573 -1.777368 -0.27841544 0.5407871 -0.0931665 -0.73432213 -1.7092115 -1.7803586 0.420382 -1.9065193
我们 -0.23563945 1.4042574 -2.3537142 0.725962 2.933682 0.6615993 -2.6610134 -0.08955924 -0.1665681 -1.5975363 -1.776476
国际 1.1025844 1.3746828 0.4659739 -2.5917017 1.7483244 1.8406497 0.9699901 -0.5780037 -3.862202 4.341646 -2.1862385
多 7.291943 -1.3803319 -0.9347811 2.772387 2.1759396 2.9499593 -1.4022183 3.1791203 0.1057562 1.2459197 -2.3392372
为 -0.39052173 2.1475165 -0.23776683 0.30564114 1.3141553 0.59866315 -2.8874214 -0.7243174 -1.5708435 0.0024544164 -1.1519965
中心 -0.8721413 1.9200733 8.012448 -0.368464 2.5739107 -3.3619163 2.8064344 -2.7213373 -2.6165981 -2.3245537 -3.1795979
7 4.385245 0.6000415 5.651832 4.478033 -0.37665114 -1.9129174 3.4307756 0.3481054 -5.7138276 -3.6250377 -3.7335753
以 0.3140522 0.97755957 0.2896929 -2.3764174 1.5367041 0.7558805 -1.6212747 -0.7667357 -2.7920003 -0.6846573 -3.0359554
人 -0.7990826 1.7933385 -3.1683095 0.05669152 0.057181437 2.4383047 -1.1279747 -1.9895526 -1.1483983 0.1756813 -4.620903
和 1.2361478 2.302071 -0.8020679 -0.6095524 0.61115754 0.49001712 -1.5687917 -0.6612772 -1.2505583 -2.260885 -2.9136302
5 4.3166456 1.4661167 1.8212613 3.3586035 -0.7762388 0.81842935 3.2920294 -2.0557363 -2.370313 -1.1053813 -4.3626747
创作 1.732959 0.5262651 1.0679232 -1.7133989 2.0102098 0.48652366 -2.7404475 -1.4024541 -3.8972397 -1.0941013 -2.156917
空间 -1.098684 0.8900108 -0.7347943 0.5137173 2.0941083 -1.8169203 -0.48706028 -1.4765031 -6.909305 -0.7515285 1.7569941
10 2.389359 0.3288345 1.7073932 3.9655015 -1.8228749 3.0661244 2.810503 -0.83711296 -4.1065526 2.677496 -3.1178524
资讯 -7.376779 -2.7126372 1.9054207 -0.32179028 4.695879 -3.5462132 1.6791321 6.6415114 -0.89359444 -1.2584996 -6.9742227
个展 3.7157962 2.0517726 6.6498804 -0.20924893 2.1872215 0.14439268 0.42466 -2.1935596 -5.3333387 -2.2709198 -0.5504706
4 3.579681 1.7342271 1.2556795 5.207473 0.5231629 0.10827928 4.176469 -2.076169 -0.9017304 -0.66033137 -2.3602026
台北 4.7722573 3.816944 1.1888144 -0.72814125 3.1076202 -0.026796028 3.4696987 -3.3240104 -5.2288923 3.041326 0.28364745
8 5.698021 1.7964903 5.5511103 3.4257562 0.5087961 -1.878235 2.3899949 -0.7426979 -5.863613 0.44674638 -2.3537185
艺廊 1.7290722 1.0702567 8.037796 0.72075236 5.1912723 -2.5783813 -3.4535375 1.491958 -3.3002703 3.1351278 -2.6394744
光 -2.060399 -0.75275385 -6.506755 0.3333311 0.5143426 -4.049429 1.078412 1.4839897 -4.9816327 2.5867531 -2.9376402
11 3.5809445 -0.26420823 0.74305236 4.253712 -1.005013 2.4551375 4.9276476 -1.5722641 -3.9041831 1.0178939 -4.184135
灵魂 -2.7618816 3.338794 -4.1526175 7.0927277 2.5149157 0.54084355 -0.28125152 1.8702521 -1.0960947 0.640054 1.1576451
专题 -3.5323768 -0.6873725 0.9639815 -2.5264084 6.1070747 4.2901797 3.328261 4.7925277 -4.84278 1.5724404 -4.1953626
及 -1.570393 0.20025593 1.6381419 -2.2498486 1.7978851 1.6152464 -1.0241023 0.23774071 -1.7824128 -0.9365893 -2.213058
12 3.4764397 -1.4990171 1.1738931 2.9803567 -0.14167479 1.2679969 4.103569 -0.6421219 -3.2039762 -0.50817186 -3.093418
报导 -3.2188177 -1.230519 0.3103536 -1.4966742 5.8172064 3.9658763 4.1495357 5.217638 -4.189112 -1.442626 -4.4711165
6 4.237823 2.9528794 2.1148598 5.053151 -1.1382091 1.0257761 3.5961938 -0.9926069 -3.0566678 -2.770218 -4.0962396
并 -0.99768525 1.17468 -1.0944452 0.38036287 -0.8427505 0.52185047 -1.8834683 0.0156258 -2.5836792 -0.024934532 -2.355463
于 2.293877 0.4980696 -0.3930981 -0.796197 0.2714159 0.006227564 0.6904431 -2.7017486 -3.2010078 0.39609265 -2.1315527
帝图 0.9173545 2.8413064 6.943946 0.8569387 11.466015 -4.8940787 3.1910112 -1.160496 1.4431251 -1.1602466 -5.3122935
非池 1.5620471 -1.3262032 2.952347 -2.7873356 4.3597226 -2.058227 2.9353392 -4.6001945 -2.453173 3.3713768 -4.952893
不 0.6343237 -0.3968227 -3.7563708 1.2718141 1.993593 -0.023592778 -0.35453302 0.20985067 0.9479104 -1.5225761 -3.6393912
9 3.7174718 1.4633918 2.416811 5.505247 -1.9137385 -1.2210621 2.1368546 1.5912502 -4.6800485 3.130352 -2.2711153
屋 -5.1157603 1.5454278 -2.34396 5.834064 3.3351455 -3.947975 -0.64058644 5.2335005 -2.6656678 1.91091 0.2718691
他 0.91494715 1.5731409 -3.0427985 0.3805778 2.7102008 -0.16816044 -1.6909317 0.55150753 0.25788477 -2.2661054 -3.1026952
会 1.2598587 0.06252694 -4.3262353 1.6501169 2.2439792 0.13516368 -0.84132844 0.40247354 0.53873384 -1.4773421 -3.1603577
都 0.86928433 0.74918354 -3.4404826 0.8286793 2.7370994 0.22260873 -1.3273685 -0.18585497 0.9440172 -1.5181521 -3.4456866
小屋 -2.3482199 -0.93203604 -0.38596478 3.6937454 7.979207 -7.240347 -0.106795095 5.7421064 -4.626264 -2.1973794 -0.115867786
老师 0.22054373 -0.078934066 -3.9983456 3.940173 1.158083 -1.0162972 -1.2781379 5.763246 0.33847168 -0.40871438 -2.0531445
2020 4.971497 -1.8122848 0.6644631 3.4910724 1.7891264 -0.05587154 1.380612 -0.3455623 -2.1078248 0.4662326 -1.5574366
艺术品 0.4057912 -0.63296616 2.538547 0.49286532 3.6895607 0.9462373 -3.6961772 1.338251 -1.4020673 3.8489027 -3.2468536
让 0.18960765 2.295732 -2.9252563 0.6122503 2.0914185 -0.095986016 -2.5795186 -0.14575595 -0.6349923 -0.70168555 -2.029236
服务 -4.3642545 2.386103 4.164827 4.219908 2.0285685 3.7558956 -4.475839 2.2545485 -1.0966684 -2.6595433 -0.6379068
新 0.14524603 3.2048762 -0.65682083 -0.25735366 -0.8534749 -0.6024738 -0.66618145 -1.2371819 -1.6341856 2.926973 -2.7705154
一个 1.1296209 1.6390153 -2.3713908 0.97607875 1.8155944 0.08947206 -1.6715398 -1.1675572 0.95701116 -0.9957791 -3.9049544
未来 1.4257053 4.1075697 -1.5347464 -1.1231505 0.9087291 0.7973652 -0.38293302 -1.6212139 -1.7283745 -1.7991269 -2.7337267
产业 -2.5436685 1.8558644 1.3378627 -3.4042816 2.9029083 2.9570603 0.8926268 1.8026987 -2.9200716 3.2117581 -2.0266075
文化 -0.32983574 2.1192331 1.3388973 -4.0636315 2.6559153 0.34057206 0.2275139 -1.0348343 -2.9290407 0.12752917 -2.3513093
而 0.65616477 1.1872145 -2.5505955 0.808339 2.231186 0.025729772 -1.5553766 -0.9066856 -0.16975236 -1.1156477 -1.9640309
透过 -2.2947855 1.6173471 -1.3375552 -0.7275642 1.4898674 -0.6731804 -2.6462197 -0.09814614 -1.8656876 0.5282961 -1.9774817
单位 -0.5317805 -1.3574436 4.5618834 1.1874039 4.82 0.93798834 -3.8677514 3.4916847 -1.8281815 3.4657605 -3.3650227
策展 -0.09184508 4.204096 1.0567596 -1.7099612 -1.445896 3.5099103 -0.86834395 -2.5852227 -5.172715 1.8125988 -5.6189523
A -1.0434656 0.5756927 2.6129725 0.45953143 5.6437645 1.9939804 5.0060487 -2.092043 -3.8539648 1.1252626 3.153417
跨界 -3.0762155 2.4692826 2.1868427 -2.1913269 1.4095306 3.4312398 1.0616482 1.555372 -4.4450793 5.2609353 -2.2134273
展 0.8500626 1.3598547 2.6078548 2.2198317 -1.8585354 0.03385535 -0.7064568 -2.609614 -4.5003715 5.150434 -3.3210928
被 -2.06956 2.0698159 -6.1971045 0.58363336 3.3251626 -0.8213651 0.39363736 -1.225498 -1.4018158 0.2869518 -2.3991327
探索 1.772283 0.18994947 0.580219 4.7460103 -0.8491713 0.027623296 -3.8230462 1.1253642 -1.5901803 5.4687552 -2.2828083
就 0.26994082 -0.33253768 -4.72494 1.3711551 1.5950621 -1.8232746 -0.22259131 2.1539755 1.3317653 -0.05088763 -5.423582
馆 -1.4050758 3.4724824 0.77023256 2.4291646 -0.5219796 3.39313 -0.033672117 -5.067866 -5.878403 1.5451996 -1.0561037
线上 -0.4316254 -0.3867095 3.7423408 0.1606757 3.182769 -0.012026801 -1.7280881 1.7803589 -0.16527168 2.0010686 -1.9619483
能 -0.6832598 2.845996 -2.3922 2.7246535 3.8108652 -2.4493752 -3.8914478 -1.1197329 -0.6250314 -0.6669723 -0.6420721
常见问题 0.35120687 1.9585941 6.690322 2.4346619 1.735865 3.1934397 -4.552653 1.433658 -6.0997076 0.38431552 -1.2548568
说 1.5313685 0.18242435 -2.1302524 1.5213753 3.4562774 1.0736152 1.3435293 0.0041175606 0.24116783 -5.6632657 -2.4520447
到 0.44670933 1.5412267 -2.5187824 1.6729549 0.8575052 0.2655371 -0.8611205 -1.860393 0.087895766 -1.2892169 -2.3353539
艺术网 -0.28804517 -1.5156858 1.8313296 -2.1932063 4.2660956 -1.6073209 3.001444 -4.7303057 -1.9534429 4.1992106 -5.1853757
观点 -1.7398125 4.875542 2.1719494 -1.6002412 0.96288383 -0.07111557 -0.49688444 1.7952346 -3.7562957 3.897725 -0.9250647
对 0.26202676 1.5765789 -1.5679187 -0.9047554 2.5534668 0.8315461 -1.997768 -0.3581138 -0.5061992 -1.5218018 -2.3312411
生活 -1.2416276 0.24135374 -0.16648297 -1.3611021 4.043791 -3.1754286 -2.0260231 0.6027271 -2.1113412 -2.4784768 -1.0399684
提供 -0.016245684 -0.8833262 2.2366288 -2.143796 1.8825531 1.6168692 1.455847 -2.7666142 -4.395818 -0.1702985 -2.052086
但 1.1424501 0.4821958 -3.7312055 2.4465532 2.9933121 -0.07834142 -0.42492947 1.5093049 3.1598556 -1.9159501 -5.054522
图 0.39591923 -2.2027154 4.180653 -1.6153755 2.4135325 0.9893398 2.3095765 -3.768691 -4.9486704 0.74891376 -2.8444045
关于 0.24123155 0.091430575 2.0468438 0.5053666 3.5120385 -1.9786915 1.3200872 0.9041662 0.88354886 -1.2266966 -0.18101947
2019 3.704734 -1.1319913 1.2257093 2.8125546 0.8030086 0.03876103 1.2034869 -0.10978677 -1.9660944 0.64656115 -2.1589644
这 0.30197042 0.8599696 -3.0846608 1.7427146 2.4246128 -0.33981517 -1.3473861 -0.064977676 0.88502187 -1.2369468 -3.135221
可以 1.2077801 1.7202348 -4.5197544 1.0427738 2.9454763 0.14346346 -2.152974 -0.74249625 0.052383084 -0.4023329 -3.550876
计划 -1.3167832 1.4772184 0.2424523 -1.8077468 1.851661 0.9314918 -0.20497957 -0.8615903 -2.8154688 -0.30240986 -1.0028746
后 0.1850113 0.09170577 -1.4252388 0.625629 0.6192446 -0.688066 1.468844 0.091484495 0.6986463 -0.83341265 -1.7861246
之 0.7169739 -0.44304645 0.1570897 -0.64216393 0.28219193 0.38356027 0.14841837 -0.29200885 -1.4378153 0.21676384 -1.8224503
时事 -2.0987284 6.3252506 3.1248877 -1.0474229 1.1773381 0.3327408 -0.06427248 2.3859596 -4.5941496 4.988604 -2.3708577
内容 0.03333142 2.781513 -1.9577504 0.7446253 1.8011243 -1.4916364 2.1947074 1.9041524 2.7046463 2.038847 -1.4275112
高雄 2.7349763 2.8442934 5.1718583 -0.8261612 0.7118281 -2.596532 0.20681284 -1.3566076 -4.165795 -1.0289135 -2.2143044
可能 3.377357 1.472807 -6.560219 0.27158695 4.138652 -1.0493737 1.7979136 -1.2675793 -1.7558652 0.8856976 -3.2755904
留言 0.13930888 3.1958065 -0.6096118 3.8540335 1.8385637 -0.79089963 4.145378 5.187771 4.072211 3.4311495 -3.2252188
登入 0.22375217 2.186873 4.2467 3.0229414 4.6080875 -1.7953032 -0.60773873 5.425294 0.017305695 6.325773 -2.109741
时 0.87060744 -0.0088888565 -1.6487821 1.0833541 2.7416062 1.3768767 0.5957209 -0.6143553 1.2788417 -2.1701913 -2.296314
杰克 0.94875115 0.51774496 -4.8934083 5.688261 0.33473644 -3.3071053 -0.63063824 3.5034676 -0.30635938 0.19565496 -1.5783834
博览会 2.6282775 2.044212 1.8332863 -1.166026 1.3412267 0.6547826 1.9718149 -1.1158917 -5.0868936 2.4240444 -0.87354237
艺术史 -1.0785953 -1.5571642 1.8369106 -1.2613667 3.5728116 2.9129527 -1.012176 3.402344 -3.0833108 -0.4465897 -2.347072
所 0.18688019 1.4986106 -1.2177646 -0.37372798 1.8824989 0.19681624 -1.994504 -0.7991076 -1.1297654 -0.48667517 -2.1997063
宇宙 -1.9806503 1.7480707 -1.9401412 6.2008677 -0.026390314 -1.2235626 -2.2058544 -1.2170367 -1.7175063 1.5316601 -0.5963303
希 -0.74914277 0.39270613 -5.0440416 4.895994 -0.11940333 -3.8002844 1.6299948 3.3882236 -1.1174862 1.3674039 -2.1141253
0 -2.315078 2.8512292 0.39953935 3.8426957 1.4003404 -2.155195 4.4254327 4.2202234 3.198347 2.824657 -1.2564627
朋友 1.0658422 0.7189161 -2.3308485 4.864866 3.6739442 1.1548088 -0.6620618 1.9354342 1.9829578 -2.0824223 -0.2974986
当代 1.3693464 3.251994 1.3014636 -1.9171262 2.1222045 -0.025384054 0.11731391 -2.3920393 -4.571824 0.44305524 -1.2215778
评论 -2.1013093 1.0019912 1.4477363 -1.6015693 3.2213657 2.6299477 1.4700373 2.1255827 -3.1599407 3.549859 -2.5913658
2018 3.2363114 -1.2034321 1.4681832 2.8535411 0.9736816 -0.093908094 0.91927856 -0.04477255 -1.87149 -0.19011998 -1.9292259
从 -0.11153483 0.6171411 -1.3022866 0.19539952 0.6486158 0.52021474 -0.40373868 -1.1347951 -1.1385683 -0.1739517 -1.5982662
台 -1.2944975 0.22501677 -0.80188847 2.9749486 -0.8128586 -4.6181192 3.0971742 -3.713517 -3.0517972 1.5954915 -2.2083738
日 0.8649853 -1.0262278 -0.16786288 1.665646 -1.6336396 1.7391957 4.925016 -1.3821194 -2.4214027 -0.062680215 -2.7987819
Art 2.9260764 2.078355 2.9900506 0.44498506 4.299119 -0.82795393 4.202529 -1.0964662 -4.801184 3.1911988 1.9010669
要 -0.50479347 0.9230408 -2.989866 2.5847845 4.564287 1.938815 0.43537655 1.6696388 1.6943967 -4.7854843 -2.293666
因为 1.9465553 1.2863036 -4.3013387 1.4308126 2.9396055 -0.87017024 0.2505455 1.0890213 1.7480472 -1.0583589 -3.6297526
等 -0.60026836 0.7255475 0.5342957 -2.0843763 1.3961321 1.0626101 -0.7235436 -0.0745754 -1.777871 -0.3231659 -2.4689236
双年展 3.4902873 4.9525237 0.75044227 0.6618527 0.32838714 -0.18903002 0.49134254 -2.3342147 -2.9083455 4.1218333 -1.8376735
影音 -1.4202268 -1.2988241 2.9867535 -0.7707759 3.4964676 3.594037 -1.6421438 4.318859 -4.0297294 0.34124926 -2.778154
着 0.52816576 0.99059963 -2.0975575 0.74164927 2.2304316 -0.260983 -1.4201434 -0.38646206 -0.20448571 -1.040599 -1.6883547
这个 0.46471927 1.6306304 -2.620834 0.5712055 3.3825438 1.3311877 -0.5084373 -0.78947383 0.7007527 -2.0790303 -2.3169723
征件 -1.7810656 -0.7802362 -0.30423757 -0.3319028 3.1940892 1.9250528 4.1045837 2.4161596 -2.306072 -1.254713 -2.8017912
免费 -3.8488202 3.5246181 3.587321 2.2811866 4.5287986 0.51780975 1.2410817 2.28022 1.071009 -0.43581784 -0.3008533
条款 -3.5036423 3.1190863 3.6369324 4.0576463 4.308776 3.3205705 -1.8590536 2.3681784 -1.9646419 -2.3986745 -1.1048607
企画 -2.8328466 0.039037243 0.23513436 -0.9586466 3.1957865 2.46373 3.2588167 2.2232614 -2.4608555 0.43823707 -2.2684646
或 -0.34828106 0.44634792 0.071081206 -1.4607983 1.5459901 1.1633269 -0.1053583 0.24303095 -0.46743834 -0.58974355 -2.2329485
补助 -1.9326653 -1.0930026 0.0750283 -0.93011904 4.17813 1.8158147 2.8211727 3.0173054 -2.4692664 -1.796729 -2.870128
篇 -2.6633646 3.3750484 0.19016996 3.5419118 2.3837998 -1.4424739 3.274179 4.772115 3.066026 3.4184127 -2.51897
图书馆 -1.599424 -1.1839511 1.3810185 -0.85820574 3.6121712 2.8073254 0.08803742 3.9411187 -3.2906067 -0.0087058535 -2.5507457
焦点人物 -1.0550413 1.2327868 0.63227904 -0.26689312 2.518316 1.8383088 0.8821341 0.93444 -2.8175142 5.676837 -3.4323795
以及 -0.61219025 2.4547143 -0.048420575 -1.2385798 1.5237337 0.14684403 -1.6786819 -0.42363462 -2.295602 0.37151012 -1.3679804
故事 -3.2228124 0.54662055 -0.024469214 0.3034435 1.4478607 -0.8459466 -0.721288 1.2086539 0.36672425 -0.7824884 -2.9440687
全部 0.108790874 -0.078140855 -0.047225516 0.59074867 2.692753 0.12444118 -0.18908188 -0.5882858 -1.5073998 5.474893 -4.018081
https -1.2769715 0.5168743 4.7139564 3.3028488 3.7680516 4.209882 3.8755307 0.8257482 1.6570264 2.8134787 -1.6332436
订阅 -2.4010665 3.4615731 4.119581 -0.69211495 4.005689 0.11388236 1.6228513 1.2945608 -0.45138344 1.252946 0.8624541
方案 -3.5514967 3.6386182 2.9147906 4.2091446 4.3696885 2.1725583 -0.27248698 2.3415895 -0.37436768 -1.3994187 -0.770587
2017 3.3933532 -0.41047746 1.8378528 3.241002 0.6727922 0.30503765 1.6005294 -0.26248258 -1.9178425 0.83320135 -1.5445398
须知 -1.5618091 1.9467492 4.4231853 3.589156 3.1078804 2.7561848 -2.7565842 2.3189836 -3.5317254 -0.90628934 -1.7141942
生命 0.40536222 0.39698634 -1.5762823 1.6860291 0.7198627 0.12558818 -1.9929041 0.23204595 -1.1884155 0.52083534 -1.1231496
广告 -3.6795783 3.4699135 3.244083 4.635904 3.7966425 2.7919421 -1.1771499 2.4709504 -1.137201 -1.6766744 -0.77389824
很 -0.3548365 0.4908202 -3.3125763 0.68254834 2.8675315 -0.3458734 -0.9203887 1.2777073 1.464297 -1.3128498 -3.6264389
00 2.0460656 -1.0232259 0.62756455 3.415578 -0.8760601 1.5227952 6.603734 1.5559658 -0.7415578 0.2223236 -3.6250734
购物 -0.39317387 1.4032786 4.6088333 2.9196467 3.045109 2.6906686 -2.8816495 2.1364632 -3.7432463 -0.3724514 -1.6755741
电子报 -2.9494812 4.364021 4.554815 -0.095263645 4.47478 0.045428105 1.8198946 1.6974171 0.13366626 1.4437778 0.9241726
刊登 -3.1708233 4.3488574 4.4045496 0.89537567 5.1789074 0.18403588 1.4807726 2.0174308 0.18985657 0.50529355 0.28222317
总览 -0.30906892 -1.7438763 3.350917 0.9006088 3.9245212 2.2989671 -2.450997 3.80764 -3.4099135 1.2965549 -3.4320326
开始 0.82452637 0.20606555 -2.3630629 1.1904323 0.65254664 0.8901495 0.42554602 -0.43718582 0.119662285 -1.1973059 -2.0438387
由 -0.53934646 1.2853092 0.94897705 -0.73705804 0.34185237 1.1575373 0.167914 -0.97619134 -2.1064951 0.21899699 -1.5240434
聚点 -0.3310303 -1.4031174 2.97028 0.8653698 3.9123073 2.7117295 -2.0682619 4.36023 -3.8251796 0.21498203 -3.529091
展讯 -3.5439558 4.5445833 3.6287522 2.1761837 5.6048374 0.46660468 1.1974137 2.1525478 0.38098475 -0.055830285 0.18830022
图辑 -2.6974773 0.45144397 -0.5130724 0.041354652 3.8827114 2.0856805 3.8745136 2.579252 -2.6595752 -0.124915004 -3.2208388
她 -0.6154746 1.1513283 -2.8631833 2.382109 2.8410242 -1.0183624 -2.3157687 1.1159238 1.2139279 -2.0336723 -2.5462644
成为 1.4787403 2.7243152 0.4607503 -0.38609657 1.0712403 -1.7720081 -1.2879708 -1.9279475 -1.2951912 -0.9170242 -2.6463876
发展 0.45559373 1.6108496 -0.9519204 -2.4063046 1.4582032 -0.7935804 -0.06774031 0.0700716 -0.3735159 0.3973888 -3.9651797
ART 1.3655604 0.9804673 1.7035334 -2.4017045 2.0667279 1.3959515 3.807903 -0.58696735 -4.5726337 2.723 -0.91736305
心得 -2.4515326 -1.4800122 -1.2930297 1.3296688 2.7185946 -2.9005063 1.9823928 4.5399103 -1.3952762 -0.18852288 -1.7032963
没有 -0.79948837 2.0307386 -4.214928 1.0889212 2.5410948 0.7756029 -1.0333964 0.115409836 1.2578027 -0.7015786 -4.2227683
详细 -0.35634834 3.6488347 -1.7372419 2.5087461 2.7094305 -1.952166 2.4628704 2.8440647 2.8263783 2.5551488 -2.0528824
城市 0.04241406 3.7201195 0.43452382 1.0238239 -0.17913722 -1.8632689 1.5247761 -3.6737204 -1.6493796 -1.1163267 -3.3360088
the 0.36702752 0.72275084 6.338047 3.9304583 2.269468 2.0778587 2.0463738 0.3127659 -1.5017269 1.9019659 -0.45881757
下 0.5491411 0.9170903 -0.7239855 -0.5248155 1.11084 0.23413223 -0.28831583 -1.0081694 -0.4807892 0.19741164 -2.1667078
13 3.0022492 1.9605234 -0.26132864 3.8016853 0.5062713 0.4577885 3.0141983 -2.210042 -1.6893059 1.2864037 -1.7096422
前世 -2.7738726 2.4444933 -1.9745346 4.3187895 1.3502038 -0.7541412 -2.3162153 3.5486505 -1.9601264 5.2662606 -3.1240582
真的 0.50237644 1.0759829 -6.481823 2.7292588 3.8119996 -1.8472041 0.9934988 1.6480286 -2.4137883 -1.9052048 -0.9629238
光频 -2.8948038 3.5428238 -1.6764369 6.3677053 1.486198 -1.3885525 -0.4357018 1.4036648 -3.830313 2.2750423 1.2461989
不同 0.17602281 1.8662205 -0.53606695 -1.9045963 2.5221224 -0.2074691 -2.2042234 -0.6427165 -2.0106559 -0.37589496 -2.6330044
时间 0.79967123 -1.0203991 -1.4000264 0.9335024 0.5260584 0.49127606 1.0848415 -0.15922508 -0.47591093 -1.1933552 -2.2400377
地 0.741736 1.5629238 -0.9696709 -0.8125969 1.6552006 0.67778814 -1.3337907 -0.55802095 -1.2303795 -0.20093037 -2.1844845
学习 -2.685959 -0.6176874 -3.3895485 2.0436137 1.805181 -2.524921 0.87955385 2.0935948 -1.71933 0.8033406 -2.7097802
连结 -2.5585217 1.174722 -2.1414006 1.5063254 1.611285 -0.52966803 0.39888352 1.9282581 -0.8906265 0.811687 -0.29653934
举办 -1.3127172 1.2404286 -0.0021196592 2.324917 -0.8906343 1.5079764 -0.06268605 -1.2673485 -4.018642 0.79477644 -0.786568
研究 0.33384082 1.1254115 2.6881876 -1.3823291 3.3702295 -1.3153206 -0.69631976 -0.9815512 -0.914629 -0.40715772 -1.8823644
2015 3.48722 0.7844697 0.02995064 3.243802 -0.35985592 0.90067977 1.3770596 -0.27274114 -1.8834832 0.7343159 -2.0176933
参与 0.18657416 0.85206264 1.2964377 -0.10161157 -0.1442181 -0.95039 0.048197165 0.14291434 -1.3398055 -1.8750991 -2.1517916
2016 3.6262116 -0.15287296 1.4007703 3.0865092 0.2573118 0.6711048 1.3969253 -0.21830037 -2.389767 0.51772267 -2.2839124
亚洲 1.4711628 2.9111774 2.7759783 -1.0129722 1.5140846 -0.23972096 -1.3289986 -0.8348933 -2.2593157 1.9193728 -2.2174706
祝福 -1.4591185 2.0473418 -2.4326863 4.6317954 1.4156476 -0.6569314 -0.8411828 1.8159056 -0.43890926 0.15341026 0.6068244
系列 1.7783929 -0.6935144 0.96448714 -0.74277204 0.39418027 0.8476229 0.12687597 0.20572995 -2.255658 0.8430364 -1.6305612
内 -1.719471 0.6937766 4.518737 1.9179728 1.4884058 -3.9467716 2.4249988 -0.41331127 -0.99064296 -1.6110066 -2.0808485
他们 0.8810587 1.244506 -2.442168 0.6388732 2.134763 -0.059754573 -1.8982086 -0.3038111 -0.109538905 -0.5867376 -2.5651865
30 1.9325616 -0.4592104 2.4599645 2.2308426 -0.10004743 -0.27777615 4.01119 -1.06562 -0.515592 -0.8710818 -3.1762505
艺术节 0.96798605 1.3479639 -0.30115142 -3.0292654 1.0338792 1.6201754 2.7121663 -1.2523612 -3.5788605 1.6986374 -2.657211
感受 0.89201045 2.8010614 -2.6316898 1.0551859 0.8060336 -0.67590636 1.1102959 -1.7147948 -1.2965858 -0.8830941 -1.5096179
来 0.16218247 0.6649843 -1.884881 0.75292057 1.4043201 -0.25317994 -1.4262766 0.045565777 -0.12140347 -0.41181445 -1.9588958
of 0.6223974 0.7701817 5.5819798 4.072337 1.492054 1.9079485 2.442183 0.47341847 -1.495035 1.41804 0.39708745
注册 -0.54492325 0.254207 3.3120892 2.112765 5.144625 -1.6109357 -0.68625456 4.37251 -0.4687837 4.2755923 -1.997186
对于 -1.0209178 2.6856725 -1.8090506 -1.2256045 1.5795673 -0.7151881 -1.8339779 1.0032521 -1.8710345 0.94086313 -1.3441668
带来 0.7885165 1.2173728 0.3443581 1.1096356 1.5373417 -1.0205188 -3.6971955 1.1759378 -1.4780403 0.24122746 -0.1760512
水晶 -2.9189472 0.9356076 -2.7147775 4.438623 2.2798388 -1.7765113 0.72628057 4.468373 -2.78938 1.3367056 0.42704567
15 1.4089819 -1.0845362 0.5442845 2.5478215 -0.36695936 0.9339736 2.8117902 -0.14306466 -1.3600848 0.48838037 -1.3320236
地方 0.5603387 2.4276938 0.02716379 -0.39853576 0.33268332 1.0710747 -0.64920187 -0.80318457 -1.9466696 -0.24053827 -2.1795259
就是 -0.78644854 0.35997015 -0.56957996 3.2237396 2.05519 -0.38401285 0.39202827 -0.6620668 1.8461636 -2.463194 -1.7571468
收藏 1.5423454 0.34309727 -0.72567374 -0.45836663 1.2018331 0.31447834 0.2467495 -0.26193193 -0.0063352543 -0.024185665 -1.3561398
高 -1.103646 0.95164394 -1.0470204 2.7520177 0.41422954 0.034454167 1.731615 1.8404483 1.4264804 -0.45582145 -0.9393024
看 1.0169529 0.49291697 -0.49684638 2.9320695 3.2506955 0.5223747 1.3572404 1.3125312 2.963287 -2.5517087 -2.7558408
去 0.77155316 0.0077343057 -1.6848241 1.649234 2.781935 0.1467037 -0.27152902 0.38648972 0.2526424 -3.6222923 -1.7543275
请 -0.5815917 0.028618798 0.039234787 1.5992036 2.0532057 -0.7101398 0.52804303 1.6950452 0.2561449 -1.5409492 0.31901902
莺歌 -2.2814765 2.7491796 1.4658664 -1.0217928 0.9566545 0.6590861 0.029188445 0.6786392 -2.8096802 2.4866018 -0.1448683
特别 0.08697285 1.3928163 -1.1265892 -0.14383471 2.8111682 1.83594 0.22153261 -0.3835885 0.13489231 -1.577927 -1.0227504
世界 1.0074217 1.1521813 -0.8525233 0.11946219 1.4350699 0.33931038 -1.1504542 -1.3877755 -0.55305684 0.28414682 -1.7620041
展出 1.5784374 0.07952493 1.4223648 -1.0563499 0.5673361 0.44531435 0.40109876 -1.2062917 -2.8474824 -0.113572925 -1.5422636
登场 0.19641638 3.1675773 -0.0016235041 2.8967328 -1.78849 0.93817985 0.7373428 -2.6163404 -3.5025544 2.6426504 -3.605238
进行 -1.2977097 1.205415 -0.29721618 0.8684375 1.181545 1.0530651 -1.7782937 0.4556281 -0.9036706 -0.5518818 -1.140347
互动 -0.07971038 0.724403 -0.31008038 2.3161304 0.0813171 -0.021943592 -2.066119 -0.8988306 -2.826524 2.6238859 -1.1256562
欢迎 -0.5971367 1.1583536 -0.30660114 5.125964 1.8488224 0.72605133 1.6355485 0.067213565 1.3957815 -1.4264586 -0.18135309
出 0.44714326 1.4229373 -1.4218606 -0.58856356 1.7632688 0.041747604 -1.7940598 -0.30523792 -1.42392 -0.39086813 -1.9119592
想 0.35851896 0.23369782 -1.9149449 1.5710377 3.3583694 0.6097243 0.7554596 0.035257243 1.476257 -2.3067715 -1.9247562
邀请 0.2287798 1.2939095 0.38497752 -0.7935665 0.26785728 1.1641841 -0.8693118 -0.48531485 -2.1520486 0.14476945 -1.7185518
2012 1.8324945 -0.36559445 1.387274 3.573857 -0.4615015 1.0185357 1.5789291 0.24271022 -1.6877968 -0.14391994 -2.4187417
新北市 -2.7531135 4.5633 0.7450552 -0.83701295 0.47369564 -0.36480263 2.3861177 1.9324719 -4.2826962 1.558217 -0.09072547
您好 -0.15822159 2.8178196 -1.0798109 6.129577 4.942845 2.2428236 0.6243264 4.1720643 1.4512802 -3.1630237 -0.6602656
gl 0.29947007 0.9380882 2.6835773 3.2726526 3.530884 3.116342 2.640084 0.27344018 0.5577597 2.450272 -3.7596612
来自 0.09344228 0.85686374 -2.6055493 1.0989523 1.0950024 -0.54797304 -1.3044616 0.80848366 -0.524916 1.7883058 -1.7666365
goo 0.49359944 1.0674765 2.7313719 3.3208168 3.3289275 3.096664 2.862491 0.16848469 1.1175529 2.4457815 -3.3453264
20 2.00679 -0.07947911 0.48867196 1.7634052 -0.42793822 0.30968037 2.6395783 -1.2960799 -1.5284427 1.5556507 -1.7110056
地球 -1.0625681 2.22297 -0.93598676 4.138693 0.97550184 0.20556659 -1.649807 -2.0542502 -1.4213241 1.2676649 -0.029473467
疗愈 -1.5675112 2.0669587 -2.7259197 3.5608652 1.9324963 -1.2875208 -0.9115572 1.595117 -2.4306104 0.38458568 1.2499533
现场 -0.5723469 1.903953 -1.6644251 1.26524 0.34754232 -0.5524001 2.062715 -0.91534394 -2.990172 -0.4564272 0.43221733
最 0.8475029 1.8762404 -0.65846497 1.8615552 -0.3076375 -0.3278837 1.2113389 -1.1660056 -0.37849212 -2.5900686 -2.3453534
合作 0.11814643 0.62478197 0.4717973 -1.505288 0.8549446 1.4497393 -0.43526304 -0.71462184 -2.2413168 0.8503938 -1.4504259
2014 2.465056 -0.13210465 1.3459122 2.6860778 0.25269732 -0.07581215 1.7069224 -0.4128472 -2.0317874 0.012297412 -2.0577905
国立 -0.54686314 1.1381918 1.204692 -1.0523585 1.6328838 0.1271353 2.1163847 -0.68511885 -5.4055514 0.60248125 0.2846854
2023 2.5707667 2.1313462 2.1998732 1.8469532 0.0735234 -1.2168062 2.3204792 -1.0190529 -3.9881291 1.3500868 -2.1240783
前 -0.49294162 0.3720981 -0.2534999 1.2641618 0.38408738 -0.23001459 0.9971763 0.4807127 -0.20229569 -1.1473018 -0.5299532
又 0.38129392 0.597515 -2.5757763 1.3429897 1.9499758 -0.25304443 -0.06428475 1.8304652 1.5303444 -0.40045515 -3.7348807
全 -2.5689178 1.0357436 -0.79333264 5.8125653 -0.19317889 -3.9935153 2.66606 -1.8585812 -1.6268511 -0.28134337 -2.865463
大 0.092659265 0.63127726 -1.30578 2.0078366 0.2270759 -0.76540196 -0.7453962 0.4488231 -0.76439816 0.84929717 0.1478429
台南 1.2239155 2.4821882 0.48698008 -1.0822008 0.0020989396 0.50111836 3.0531116 -0.89296776 -3.764182 0.46253657 -0.38264552
调整 -3.0888436 3.7832942 -0.028089147 4.9589615 2.814922 -0.65034074 -0.8281994 0.79639757 -2.518421 -0.090651244 1.1805364
分享 -0.46422893 1.5808461 -1.4679976 0.28555366 0.8348863 -0.4116946 -0.5998299 0.68106556 -0.064008944 -0.17975946 -1.6696521
之后 0.8032029 0.03321484 -0.30322856 1.6027442 2.0220263 -0.29080394 0.75502986 1.4145794 2.211264 -1.6858957 -2.650112
许多 -0.041704126 0.8984634 -2.6082418 0.4556132 1.5997399 -0.06179221 -1.067612 -0.43821567 -0.47501665 -0.3946154 -2.0365255
观众 -1.8220173 1.8486413 1.2832885 0.07504392 0.47714585 -1.4435865 -0.8025432 -1.6086268 -0.65621364 -0.6885305 -3.1116946
这些 -0.6943669 1.0972906 -2.0947106 0.7369869 1.6129004 -0.63894993 -1.5054792 0.050484963 0.24898356 -0.8464755 -1.852672
美学 -0.5597329 3.3916068 -0.6181701 0.89452726 0.17885858 -0.68066096 1.5811757 -2.737743 -2.1194148 -0.18095309 -0.9140588
一 0.12058549 1.0008167 0.31652302 1.0931221 0.8414155 -0.3190248 1.2451152 -1.1434276 0.7940171 -1.7539816 -2.0858717
view 2.463702 0.67342424 4.978141 0.455151 0.1344064 0.26972774 0.518057 1.2778405 -2.7272089 3.1735792 -1.2404717
all 1.9850981 0.58289105 5.1482253 -0.052269526 0.25257993 0.52238625 1.1482568 1.4924649 -3.405473 3.276422 -1.0729743
第 1.992288 1.8353089 0.33750042 2.599817 -0.1212446 0.6233447 3.6441371 -2.5335696 -1.1682695 2.5163422 -1.207539
系统 -2.2827551 -0.069736265 0.2881025 1.330061 2.8267574 -1.5252118 0.67283976 1.8794004 1.3754838 0.7222385 -0.90899193
开启 0.066818 3.2654386 -0.2894703 2.7996743 0.38421184 -0.9460127 -1.9627306 1.6504009 -0.53750104 3.7428393 -1.3162147
政策 -0.07338076 0.84107405 2.0690768 -0.24522717 3.856905 -0.90873283 1.5859013 0.8122927 0.34407058 -2.241372 -1.3082205
作为 -0.19736274 1.8105553 -0.2673307 -1.2224798 1.9749706 0.7405087 -1.2987819 -0.7266187 -1.9076788 -0.15810405 -1.6542321
密度 -1.7291175 0.9466777 -2.511964 4.4835606 1.1851926 -0.26774403 1.1379539 2.854323 0.11690601 -0.23192088 -0.32319194
记忆 -1.2162867 1.6853517 -2.6149592 -0.1200008 0.4943352 -1.7827814 -0.05615366 1.9164928 -2.5234692 2.5342956 -2.0785832
雕塑 0.55789375 -0.54174197 1.2327332 -0.14445724 1.1832496 0.996402 0.2308857 -1.4745066 -4.3316913 1.024807 -1.193504
and -0.33427128 -0.55514055 5.376973 3.9790077 1.8811061 1.4153693 2.644377 1.042058 -1.2375729 1.7519926 -0.36673594
存在 0.21313313 0.35802254 -2.8242097 3.1833115 1.6150671 -2.0766506 0.091565296 -1.5001358 -1.8493845 -1.5568696 -1.2689447
国美 -1.9273688 1.5029896 0.7594337 2.59975 0.24555364 1.7551064 0.32705367 -3.5287848 -3.874442 1.0380871 -0.53242236
意识 -0.35696262 0.84158516 -2.70859 3.0256362 1.4388007 -1.7570543 0.06173268 -0.91554636 -2.3317375 -1.2892694 -0.4101696
帮助 0.8835245 1.3970996 -4.832825 2.4864533 3.2539582 -0.85962605 0.9907482 1.1011975 -2.9790766 -1.2113729 0.102936104
Taipei 2.6335013 1.7059704 1.223788 0.37077284 2.7916002 0.19938184 3.258584 -1.0712718 -3.3703105 2.2437603 -0.015677836
你们 1.6985853 0.14626923 0.46397465 2.4449828 3.8020113 -1.1290083 0.90564936 -0.97428715 -1.7951905 -5.8806057 -1.1793662
热门 -2.6755548 -0.33824307 0.43360728 1.5360503 2.780434 -0.43756717 2.2525966 4.0115304 -1.5053355 0.81068516 -0.91141057
疫情 0.37884033 1.2419363 -1.2274455 -1.3250808 1.6071184 0.66376036 -0.5458205 -1.1448954 -0.70859313 0.042148095 -2.3667836
爱 -1.0433838 0.32924765 -2.998159 1.9512248 1.064715 -1.3576834 -0.6832537 0.80802953 -1.3504752 0.02073225 -0.03982947
希望 1.0460846 1.2336775 -1.0703791 0.04524976 1.0769725 0.30234936 -1.3385426 -0.28102878 -1.0075923 -0.3049061 -1.6554378
http -0.025536703 0.86244005 2.8242674 2.9270883 2.6951413 3.2427216 2.721203 0.42712778 1.5110605 2.6071846 -2.735719
声明 -1.1272912 1.2902013 2.2533858 1.1095109 2.9420109 0.885647 -0.14350784 0.9665057 0.1931879 -2.2044113 -0.32744458
设计 -1.6690745 0.3881465 0.90148544 -0.54224586 1.8136902 -0.6065257 -0.31873915 1.514304 -1.2831448 0.81935155 -0.595555
团队 1.0824939 1.7823892 0.7810612 -0.5838769 0.3386362 1.8316412 0.09985096 -2.5044305 -2.9655008 -1.0117177 -3.10451
觉得 1.6788052 1.4771358 -2.042288 1.7063982 2.9021683 -0.10807185 -0.7755174 1.7550676 2.3805575 0.7944189 -2.8940237
大隽 1.6260886 2.74874 1.6383424 0.94302547 3.619295 -0.04519625 3.5692623 -0.7713078 -3.0943458 3.3367994 1.008102
2013 2.2724574 0.6694173 0.92409277 2.6839278 0.23610336 -0.04444305 1.7729853 -1.0163795 -2.0256724 -0.046107147 -1.5829283
者 -0.12153896 -0.5929296 0.12588346 -0.19345845 0.752681 0.2554313 1.8698537 -0.47204316 -1.1054561 0.56830883 -1.7802606
艺博会 -0.5509805 2.6330478 2.272557 -1.5126872 1.0878342 0.28835607 0.59156126 1.5356132 -2.2318769 3.2343762 -0.966917
吗 1.3082026 0.23220687 -1.3413742 2.1965573 3.1472597 -2.134933 -0.21088567 -1.1867499 -0.47431412 -2.3589697 -0.27585775
画 -1.0192922 2.4668853 0.4658401 3.4110317 3.0579815 -0.24534445 -0.009799119 1.3703984 -1.052644 -0.23154522 2.3030515
信念 1.8800454 1.208665 -4.2191505 1.2535795 4.102181 -0.8003314 1.5852264 -1.5143931 -2.448727 0.19445567 -1.9374236
牌卡 -3.129168 1.4009203 -1.2150135 2.7446046 1.6368679 -1.3690805 -0.6154516 1.7180506 -0.7210934 1.3017615 -0.80132747
环境 -0.9120157 1.378528 -1.2397244 -1.2022042 2.2402935 0.061761566 -1.1597918 -0.29516473 -1.2818433 -0.015359273 -1.6819625
过程 -0.8557864 0.3002182 -2.3740337 -0.06366496 2.3906522 -1.2636877 -1.2512629 -0.85163414 -0.49201137 0.56305456 -2.3809943
同时 0.3694325 1.3171011 -1.4506046 0.3476154 1.6363122 0.012634327 -1.2317731 -1.1421831 -0.5354281 -0.51940423 -1.5072489
2010 2.3625903 -0.1989454 0.93245363 2.8757677 -0.009618197 0.0857753 1.7612218 -0.084339656 -1.618927 0.038098942 -2.040309
过去 1.1653003 2.0628734 -0.6648614 0.67700243 0.9563472 0.27065945 0.4060938 -0.41224405 -1.3752167 -3.8255606 -2.5876632
大学 -0.45011374 -0.3039163 1.7852013 -1.084905 1.9764293 0.44599125 1.3248066 -1.236961 -4.4686136 0.7782322 -0.72995985
2011 2.712487 0.1717527 1.1638936 3.0500433 0.3250813 0.391262 2.6399739 -0.29344407 -1.5333449 -0.6017075 -2.2093856
方式 -0.17793325 0.58642644 -0.8281791 -0.30033797 1.905598 0.10558323 -1.060568 -0.36998674 -0.7166026 -0.806363 -2.3001332
记录 -1.7225109 0.051857702 0.77917546 1.1857928 3.2711375 -2.4529445 -1.2420635 3.0649278 -1.955896 1.0174831 -0.11977031
做 0.23283042 0.6364729 -1.8193098 1.0373158 2.254763 0.4311236 -0.98386496 0.21784525 0.79968977 -1.5001049 -2.0921245
时代 -1.52559 1.9005885 -1.3441939 -0.4549179 0.3683768 -0.86717 -0.71346235 0.13301682 -0.37195104 0.94125336 -1.8442429
惟 -1.4995533 1.3658712 4.7228494 3.2293432 2.752373 -2.7573605 2.154557 -0.24061172 -0.46822107 -3.1743612 -3.0768125
隐私权 -0.044938073 0.9438074 2.9167793 1.3393153 5.0052605 -1.3010164 1.572605 1.4343693 -0.1677564 -2.6161559 -1.2656851
丰盛 -0.85010344 0.5758436 -2.5976999 3.0935597 1.7167661 -1.3284985 0.19853829 3.4800432 0.7905984 0.5432408 -2.2419972
第七 -1.209281 0.6406007 -2.0424538 4.6264534 0.7349815 -0.30510715 0.82920706 3.0970187 0.19917104 -0.032053832 -0.3384657
一种 0.12064376 0.84559137 -1.5168453 0.02137286 1.7029569 -0.47300053 -1.0807915 -0.684929 -0.4785504 -0.7418436 -1.9252763
Gallery 1.640068 0.20320089 4.3984127 0.67410487 2.7327175 -1.9798582 0.4782028 0.20508783 -2.8420691 1.8125292 1.0260298
2007 1.3731395 0.3339214 0.71279716 2.2421722 0.56834644 -0.13842137 2.237009 -0.5268562 -1.9321133 -0.15424 -1.2712065
Online 0.18670289 0.22018073 3.3264792 0.021306794 4.5995274 -2.1928182 1.0055377 -0.531437 0.84288573 0.69704777 -2.6697695
2008 1.3320233 -0.36518875 0.07985108 2.6185842 0.6455495 0.15760992 2.1744099 -0.13712311 -1.5901096 -0.64661366 -1.1027079
科技 -0.37333763 1.445938 -0.05183446 -1.672347 1.0654283 0.5671143 -0.6902642 -0.62382495 -1.9114524 0.38215664 -1.6654772
什么 -2.2601504 2.6709802 -3.2043593 2.172491 2.006251 0.83836114 -0.09713182 0.54274386 0.33630276 -0.4121838 -1.4537299
疗育 -2.2797291 1.8307966 -0.5876072 4.683816 1.5071379 -0.08341915 -0.6692706 2.9162464 -1.8021283 2.316254 0.11609444
推出 -0.5451719 2.7142062 0.109351635 0.39910796 0.6844078 -0.697847 0.85542923 -1.2343838 -3.72345 0.6060104 0.36202848
商品 -2.200105 0.81100565 -1.3887796 2.512031 2.522096 -0.33717972 1.7171711 4.1733274 -2.864448 0.5472034 0.8705845
们 0.25437403 0.7913222 -1.1791418 0.76880544 0.9530777 -0.12167956 -1.4129102 -0.052572377 -0.90448177 -0.47287604 -1.0292963
日本 0.372714 0.7996579 -0.9502212 0.6719243 0.3661435 0.24683905 -0.41664162 0.37816086 -1.0353746 0.041341666 -0.9206275
其 0.5656764 1.0127589 0.22417973 -0.66087544 1.7224941 0.12867205 -0.8066799 -0.64996505 -1.4646423 -0.70661294 -2.1382742
音乐 -1.4380269 0.5029436 0.13643172 -1.1639885 2.0330338 1.5305955 1.2328203 0.89814126 -0.6351776 -1.6966969 -1.6960526
看到 0.41223758 1.1610138 -1.5338309 0.60987306 3.2984338 1.186091 0.07879408 -0.79598325 1.161423 -1.6495016 -2.12495
一位 -0.7807497 0.6165589 -1.4843391 2.0765076 1.8876135 -0.18219495 -2.170336 0.63026613 0.5061461 -0.73563236 -1.1048335
新北 -2.8856163 2.7307074 0.35142255 -0.39376992 1.7495233 -0.6630134 0.22286528 2.3756678 -3.53108 3.4677866 -0.19656235
内在 -0.15894818 2.244848 -1.661079 3.1337912 2.4385996 -0.9650953 -1.8301713 0.31187215 0.089688264 0.4875572 0.27829775
Exhibition 0.7884331 0.70379394 3.95414 2.4015462 -0.08641624 -2.4281516 2.2266827 2.2878716 -4.567056 1.452348 -0.48121512
季 -0.9241591 2.250706 1.3652658 2.9817746 -0.93369323 -2.061765 4.4746747 -0.8755245 -1.2168325 -1.3608643 -2.3284132
可 -0.9898487 -0.17236483 -0.99118227 0.46154547 2.3224192 1.1521119 2.1104994 1.2183725 0.3590537 -2.183822 -2.0811508
14 1.7843887 -0.30178618 1.0340651 2.2161996 -0.2084123 0.2094039 3.1179266 -0.2652639 -1.8215959 -0.29636493 -1.99588
管理 -0.21089074 0.0792551 1.487506 2.0006115 2.7247643 -0.25060326 -1.7427722 1.9580013 -0.7234537 3.3877378 -1.624146
社会 0.20204669 1.4624046 -0.6450919 -1.5748796 2.1811883 0.43726733 -0.96586585 -0.24855816 -1.32507 -0.2170347 -1.9433671
影像 0.31750736 1.1176174 0.27286032 -1.1769972 1.7667419 0.17091548 -0.80606997 -1.3005282 -1.9782137 -0.5826046 -2.1304498
报名 -0.9833401 -0.9835514 1.5801045 0.47885263 1.1833074 -0.6875872 1.547163 1.4328492 1.070422 -0.36815658 -1.2102407
呈现 0.061074305 0.97128975 -0.62461007 -1.4985371 1.5352051 0.3714923 -0.9376733 -0.8383967 -2.2423675 -0.20066875 -2.1760118
跟 0.1570559 0.4082665 -2.1926312 1.4015802 1.8182085 0.096093945 -0.35929117 0.735803 0.9682466 -1.6986952 -2.0603054
一起 0.8444974 0.67386967 -1.6993718 2.1680222 0.9681391 0.4185459 -1.6309198 0.93234664 -0.18279569 0.10834649 -1.2047833
石 0.3585975 0.049769063 -0.013229362 1.4494835 5.3829503 1.671181 3.3120835 -0.4631345 1.1596028 -2.5391653 -2.4108284
19 1.1193045 -0.6258424 0.33005416 1.6798648 -0.23258534 0.49161533 2.7808363 -0.35676765 -1.2644769 0.17533602 -1.3590791
2009 1.6088581 0.45375636 0.67940575 2.3549623 0.42707795 -0.22739905 2.3026798 -0.6627173 -1.90465 -0.020748736 -1.2919008
喔 -1.5902065 1.609911 -1.1679311 3.7954051 3.6469338 1.0169724 0.2011562 2.4809515 0.41191694 -1.8721975 0.4702873
记事 -1.393092 -0.9515487 0.67114705 1.1350999 3.8152335 -3.23626 -0.41665536 2.3752644 -2.5035083 -1.6751356 -0.8592409
会员 -0.34145993 0.7686934 2.9081433 1.5065677 4.3704615 -1.93445 -0.46674076 3.6113317 -1.0446076 3.7140155 -1.0567933
问题 -0.48295218 0.27863592 -0.61732733 0.34347066 2.0484583 0.3841529 0.28186384 0.42466027 0.8936582 -0.99707234 -1.9466004
查询 -1.2234399 -0.61430633 0.44636992 1.005982 4.853288 1.9769428 4.625153 1.8107799 0.44376287 -2.7715166 -3.2967212
催眠 -1.4670174 2.128589 -1.3804528 3.7044704 0.23261206 -1.3257209 -0.5340678 1.1814032 -3.100704 2.8389122 -0.20786315
您 -0.8307817 1.4478707 -0.22117677 1.2997664 1.5105745 -0.076865695 -1.6685348 0.4263023 -0.39947876 -0.3378466 -0.4242631
成功 2.869578 -0.1307943 -1.4923767 1.7153524 0.5934311 0.827025 0.86996615 1.9726934 -0.20273316 0.8239215 -1.452189
to -0.9567731 -0.25647715 5.021139 4.0561996 1.7809012 1.2407376 2.7532346 1.2519193 -0.81688076 1.7193246 -0.68394923
正式 -0.84235257 2.0622861 -0.15180314 2.0840485 -0.9739619 2.0475156 0.5121212 -1.995998 -2.0416148 0.29747477 -2.4537208
市集 -0.7053106 -0.34352866 0.14245652 2.7394009 4.2736826 -2.7467604 -0.5805943 0.6781988 -2.271941 -2.7033398 -0.20522773
媒体 -0.1799017 1.8792862 -0.18394499 -1.892535 1.2074662 0.66269284 0.8792152 -0.9046684 -1.4591402 -0.4862196 -2.3245661
多纳 1.7557625 -0.7627124 3.2484603 1.3657078 1.187317 2.7115622 1.4498066 -0.8828281 -3.9556286 0.9584822 -1.2774084
预约 -0.90028965 0.30292293 0.27786264 4.5511074 1.2032334 0.32724187 1.8720992 -0.22549902 1.884644 -0.40599203 -0.7030647
实验 -0.5631617 1.1796257 -0.29260895 -1.121567 0.5105397 1.2430277 1.364666 -0.32671165 -2.9033072 -0.992786 -1.8104905
结界 -0.46031898 0.93211466 -4.3385777 1.781176 3.1161094 -1.6772994 1.5577286 1.2220368 -3.996385 -0.16302608 -0.6445738
如何 -0.08936682 1.3623426 -1.2732615 -0.2952086 1.7612048 0.15492108 -0.9708009 -0.5901075 -0.59929585 -0.5882094 -1.7013185
每 -0.09200254 0.1764402 -1.3695774 2.3946805 1.4966996 -0.43765062 -0.31394434 0.09449104 0.11511079 0.06986464 -1.160533
相关 -1.4647181 -0.19586983 -0.32270184 -0.93692863 1.3935555 0.4276906 0.06495729 1.1621743 -0.11318957 -0.66801465 -1.5787477
创新 1.1537532 0.17567186 0.89989346 2.247328 -0.2823835 0.48403087 -1.5337601 -0.5044742 -1.9594063 2.4414024 -1.4738642
至 1.0263121 -0.43121496 0.27355772 0.69170225 -0.6408685 0.67614824 2.152228 -0.40946028 -1.2264798 -0.36002278 -1.727206
占据 -1.3860748 0.61863834 -3.791558 0.61811054 3.404683 -2.0739813 1.6690727 0.09574332 -4.500121 0.9881836 -1.2106503
届 2.3123176 2.8975477 -0.41842872 2.586869 0.71448076 -0.53700966 2.592797 -2.8965726 -1.8424782 3.470347 -1.1550224
当 0.6087848 0.94917464 -1.9708866 0.90433484 1.9843724 0.5493129 -0.6620174 -0.23401909 0.025146378 -1.1169691 -1.7558275
创意 -0.8807237 -0.558879 1.0145175 -0.03727767 2.4624944 -1.4161292 -0.39006087 0.632096 -2.6917112 -0.087004304 -0.1727448
圣团 -1.7832578 1.1934617 -1.1490327 3.4579875 0.8848229 -0.9330726 -0.9247768 1.4889218 -0.8089179 2.199439 -0.15667145
2006 1.1147654 0.25219 0.5448734 2.0874462 0.5559246 -0.07243689 2.5656395 -0.6776456 -1.7624332 -0.5611392 -1.373045
拍卖会 -0.3708665 1.1528106 1.9138502 0.3595438 3.6577256 -1.4776639 1.4717678 -0.17967877 0.70964867 -0.37359223 -1.8312439
饰品 -2.5902855 -0.18845771 0.003014346 1.4093565 2.406944 -1.7478149 0.9747826 3.2589676 -2.1793258 1.7014899 -1.283264
联展 0.45112097 -0.34200212 2.2554593 0.14634556 0.11399261 1.9906232 0.97561365 -0.25911695 -3.380034 1.8585204 -0.48088363
贫穷 -1.3093007 0.9956104 -3.566292 0.4816755 3.4735713 -1.8679316 2.0348446 -0.4799161 -4.178107 1.3325745 -1.5867778
美展 0.13513087 2.1689095 -0.17710286 -0.03374343 0.34766936 0.67003477 4.786856 -0.35735402 -3.9103715 -1.1186101 -1.0013728
日常 1.6438626 2.7360156 1.1347582 0.18278812 1.1713272 -1.9882584 0.04956761 -2.1213381 -2.5216153 -0.43911472 -1.2840139
无意 0.38532886 0.8039594 -3.4607716 0.13072996 4.067469 -1.3169357 2.3930693 -1.5891147 -3.4852817 0.91700655 -2.1623592
今年 1.2409921 0.62249553 0.10433049 -0.69554275 0.80346036 0.9137354 0.29123047 -1.2856408 -1.6147224 0.16249503 -1.4704767
介绍 -0.43778762 0.40790787 -0.313153 0.39289543 1.7043113 -1.4830517 0.1111258 0.38142377 -1.2868823 -0.43737206 -0.1701817
力量 0.077315934 3.1139371 -1.7505014 2.4999878 -0.083696194 -0.72489536 1.8263854 -1.6170325 -1.0877335 -0.27624637 -1.0799809
特展 -0.12049316 2.371828 1.5087066 -0.6870759 -0.09027422 1.0792161 0.16846795 0.6562315 -2.573775 2.6304812 -1.3840756
台湾艺术 -0.2956464 0.85596156 0.7814558 -1.0404152 1.8418962 0.37148857 0.8884475 -0.74294657 -4.3339763 1.1077133 -0.49465564
北美 -0.65530735 1.9858221 0.26903018 1.6484903 -0.75795716 1.5425771 0.88262695 -2.988275 -2.4676833 0.9630119 -2.0427353
手链 -0.6615862 0.8588869 -1.6148186 3.5237715 2.7665637 -0.0038272992 0.8565779 3.6483293 -0.7449386 -0.82639164 -0.17481712
镍铁 0.4482313 -0.0460381 0.123861715 1.8625481 5.3714724 1.6317787 3.3836727 0.09734744 1.3606267 -2.7546008 -2.7133696
服务项目 -4.168294 0.82971716 -0.18442188 1.8534024 1.3812897 -0.46916685 0.1843734 2.1398 -0.8278572 0.48899257 -0.9502182
转化 -0.88181746 1.4169681 -1.2745175 2.4547048 -0.3471153 -0.049766477 -1.2823501 1.0397856 -0.9302202 2.0473874 -1.0178688
开课 -0.5440266 -0.4407946 1.2822621 1.4987903 0.5090271 -1.2875571 2.5124104 1.6896077 -0.595871 -0.8337382 -2.6999545
门票 -1.2644335 0.13585061 -0.7033911 2.069386 4.4398975 1.6008065 2.4578125 1.7263674 0.17503098 -4.336273 -2.108633
Solo 0.39141482 0.33910218 4.150539 2.6990283 0.05173715 -2.4660115 2.0930994 2.2220376 -4.194685 1.0798198 -0.7890703
中线 0.6525614 0.29534072 2.2983518 -0.052015744 3.4658434 -1.9550436 -0.063275374 -1.4466652 0.05041674 1.0223919 -2.8802862
Bid 0.53308 0.31928113 2.099121 0.19141181 3.6502416 -1.8159406 0.73008525 -1.1394703 0.17147636 0.8553391 -2.9221148
0cart -0.16299762 -0.14379373 1.0398896 2.221705 2.2780225 0.063971326 -1.5246025 1.455331 -1.0450673 3.8841279 -1.9543228
后台 -0.15246819 -0.21396604 1.1848475 1.9801879 2.5056486 0.044006187 -1.53022 1.580094 -0.8897863 3.7196689 -2.042207
免责 0.02133015 0.7919997 1.6178572 0.93531674 3.3836443 -0.8326758 1.2132585 1.0405141 -0.24063668 -1.751341 -1.0792617
重要 0.44148448 1.1698855 -0.22908889 -1.1119229 1.4072069 0.4602898 -0.7638416 -0.5005351 -0.86381185 -0.17640002 -1.6227804
bit -0.20283005 0.7876626 2.3881023 2.6287394 2.3672645 2.3425875 1.8226552 0.7720787 0.3409557 2.3288658 -2.2211642
ly -0.31138855 0.9908905 2.128444 2.7394712 2.3376105 2.4766042 1.781222 0.6997257 0.48962232 2.489588 -2.2613676
绘画 0.8580413 0.8252068 0.21427166 -0.5326518 1.5192372 0.19070712 -0.7927992 -0.8363505 -1.6666824 -0.41047063 -1.663095
传讯 -1.8918604 1.4549484 -1.3087547 2.9029 1.1413791 -0.08334105 -0.09641673 1.2473805 -1.0014533 1.0592018 0.04540406
共同 -0.37794733 1.1640368 0.70637417 -1.3377587 0.6925855 1.003396 -0.38195303 -0.6582684 -2.3843763 0.17856385 -1.7835065
经验 -0.18486162 0.8031529 -1.0010663 0.056047626 0.9910924 -0.16128166 -0.7408386 -0.4461365 -0.909981 -0.15861383 -1.5078852
创造 0.6538344 0.80971336 -1.5191973 0.19086257 1.1505339 -0.42963406 -1.3244119 -0.46112907 -0.833284 0.07536929 -1.3926896
其实 0.42702883 1.1969558 -2.2693052 1.1774776 1.9098353 0.20499575 -0.9481855 0.07314962 0.8790478 -0.8077595 -2.368102
之间 0.67400604 1.4885886 -0.16940153 -0.58244276 1.284011 0.4039851 -1.0174696 -0.62516576 -1.7907771 0.10497376 -1.7755896
主题 -0.11541192 0.6558846 -0.2790442 -1.0156449 0.55566597 0.83437705 -0.23185469 -0.58091295 -1.7886451 -0.027626932 -1.7997748
因此 0.4885936 0.434644 -1.2213637 0.35326886 1.6309055 0.082909785 -0.8668033 0.0016760078 0.21120133 -0.7131224 -1.8778328
访谈 -1.4211507 1.1861305 1.8666253 -1.4421345 1.3176246 0.21318337 0.6131354 1.1589645 -1.7551602 3.266109 -0.7737674
德国 0.6608145 0.24990635 -0.078924246 0.30316874 0.8059558 1.1030942 0.68399054 0.08006156 -0.24732456 -0.51277333 -1.9154266
大家 0.071725875 0.6750606 -1.9264071 1.1094655 1.6770954 0.08966461 -1.1029097 0.56039643 0.27790567 -0.7496108 -1.275734
则 0.4742112 0.3638603 -0.3607344 -0.18339047 0.93984944 0.45366502 -0.07180682 -0.3798116 -0.6192531 -0.24391738 -1.5352389
还 0.6398894 0.9422414 -1.9980448 1.1666799 2.0103137 -0.17032602 -0.8997832 0.2943151 0.44870284 -0.8611621 -1.2996691
自然 0.5763983 1.2708755 -0.62158597 -0.17073894 1.7354475 0.8043807 -1.7416631 0.016977828 -1.4775672 -0.2721804 -1.558574
关系 0.5932814 1.0221958 -1.4595952 -0.39435938 1.4786391 -0.1658742 -0.85094774 -0.9689536 -1.2618648 -0.38944522 -1.5164517
工作坊 -1.673492 0.53725386 -1.0884603 0.50832385 0.80500436 0.2624904 -0.1712576 0.58889896 -1.3368068 0.2932228 -0.6797506
知道 0.35959545 1.1836658 -2.6139238 1.9340941 2.102417 0.059156023 -0.45476198 0.5403322 0.72732955 -1.3833401 -2.0145614
策划 -0.13666026 1.9867814 -0.124103814 0.73574215 0.02488786 1.0942279 -0.5465632 -1.2327114 -2.4855988 1.3861449 -3.6047091
真实 -1.9485555 0.8130087 -0.3347268 1.0489964 1.0305641 -0.4960741 -0.41164976 0.6684677 0.24421366 -0.049010143 -2.3888028
其他 0.010169682 0.1995435 -0.81395733 0.064699456 1.1063371 0.43128952 -0.023873886 0.24724591 -0.07402438 -0.62527144 -2.1329424
数位 -0.46480435 0.8385668 0.02884606 -1.6039035 1.3546364 0.21130976 -0.17831779 -0.8144873 -1.3400314 0.26247868 -1.8121023
里 0.43627936 0.50447863 -1.2391735 0.21870866 1.3406868 0.044536468 -0.66614157 -0.08739809 -0.46207297 -0.7101507 -1.6782026
艺术馆 0.72297645 2.8386886 1.1165918 0.46854562 1.5185505 -0.60330003 1.7074219 -1.4380196 -4.466051 0.19684741 0.055830803
光影 0.55878675 1.099241 -1.0265169 -1.5125253 0.86471236 0.38251263 1.9413583 -0.6858474 -2.8212237 1.3488877 -1.7273386
再 -0.1399981 0.74447703 -1.47677 0.7739414 1.4221338 -0.10207601 -0.3580523 0.27572298 0.18594927 -0.7951294 -1.4681171
心 2.025459 0.72421306 -2.2256806 1.342635 1.8696926 -0.5512807 1.163318 -0.088405326 0.008434616 0.3912277 -1.8745459
组 0.5743253 -0.105576806 2.460572 1.8015137 -1.277379 -1.3490208 1.3431661 -0.018709084 -1.8841401 -1.6116482 -2.2286546
非常 0.42966425 0.6726539 -1.7182419 1.3992339 1.5815372 0.18379866 -0.6323361 0.55344266 0.51416737 -1.0779568 -1.5239635
所以 0.26862404 0.63240474 -2.6513672 1.23684 1.7528261 -0.27094766 -0.46262553 0.52858406 0.52221185 -1.1112978 -2.3371155
发表 -1.3029633 -0.19870941 -0.56228405 0.30634078 0.8921587 -0.4769793 0.64999795 1.2237743 -2.2418919 0.7802956 -0.1727593
C 0.27246174 0.6205295 1.1691018 -1.4419689 0.99899435 1.3762186 2.2338765 -1.1221884 -2.616801 0.094696894 -2.3606346
却 0.5252505 0.5957944 -1.7124873 0.9977621 1.6907043 -0.0989714 -0.5377853 0.20094356 0.54492706 -0.9887944 -2.2329211
美术 0.3955125 2.036375 1.9523126 0.21774113 0.42342073 0.26102018 1.9687109 -1.4008442 -1.5707515 0.21495856 -1.3695431
资料 0.010519392 -0.15259564 -0.14295924 0.36154005 3.1443453 1.503614 1.8242327 -0.31044686 0.6986381 -1.585878 -2.396849
祈福 -2.1808097 1.4317136 -0.7303432 3.7145038 0.9592164 -0.10412595 0.34353802 1.9735767 -0.9455249 0.7630293 0.6805302
本身 -0.025991645 -0.010662833 -1.4711958 3.0010145 0.78110665 -1.7034392 0.8603589 -1.158837 -2.0930948 -1.1541494 -0.9708787
高灵 -0.973727 1.3200861 -2.3434882 1.3017148 1.5926079 0.2419361 -0.92479116 0.9210011 -0.3598387 -0.49064213 -1.4986371
个人 -0.2594697 0.36405963 -0.85728025 0.53839356 1.4890981 -0.068641834 -0.27601773 0.71901304 -0.19360255 -0.6551894 -1.6566315
另 0.44579673 0.596194 -0.85847443 1.8094573 1.8924259 0.15528579 0.5314567 1.0517082 1.777574 -1.1061841 -2.9577837
才 0.63610375 0.33581838 -1.2771355 0.9357566 0.8615136 -0.19418111 0.38972294 0.18270318 0.45141327 -1.0334353 -1.4599533
LAB 0.26847866 0.53805894 1.3289821 -1.6667929 1.4085772 1.3670608 2.3991816 -1.1859553 -2.6771932 -0.05929268 -2.652957
TAIPEI 0.91851306 0.66580844 0.99846375 -2.1788554 1.3143806 1.3932605 2.8482208 0.09372861 -2.799419 1.4901694 -0.4775734
参观 -0.32410014 0.26221323 0.3915594 2.6758215 1.0373273 0.19535464 1.2598323 -0.8006231 0.6572532 0.07080318 -0.5132781
自 1.5943794 0.51395595 -0.13293745 0.5573682 0.14205152 0.65434223 -0.07855527 -1.0164092 -1.0825737 0.20407674 -1.4534494
即 -0.87817013 0.6416473 2.304128 0.90166265 1.5705938 -1.3093961 0.86112493 -0.09610396 -0.56611913 -1.218009 -2.0164952
营运 -2.9944973 0.52840936 3.1913295 0.765252 1.5759894 -1.3067435 0.90841585 0.25366515 -0.22551726 -0.086773604 -2.5065725
协会 -0.285275 0.048714258 2.4482079 -0.87701243 1.2681353 2.0120447 -0.34191388 -0.3411791 -2.8067396 0.15173659 -1.0685444
装置 0.6052515 0.03164288 0.4375501 -0.69126517 1.0720415 0.2575399 -0.39207125 -0.7483458 -2.1817272 0.17658192 -1.7144189
出发 0.64060867 1.001366 -0.35048664 1.3083134 1.6015432 0.2278674 0.83193415 -0.040122997 -1.7314365 -3.7220824 -2.1808567
神圣 -1.672468 0.7568718 -1.711057 2.8597167 1.7242774 -1.3848761 -0.03207076 2.5066807 0.15684901 0.19885394 -1.0371437
x -0.6451819 -0.120322615 2.693212 0.033555187 0.7975594 1.0853858 1.1707722 1.1942285 -2.9854412 1.8949589 -0.18547341
光源 -1.7918762 1.5827612 -0.98600525 4.030444 1.2702751 -0.11359527 -0.3880364 2.3733227 -1.1928498 0.84068096 0.6039672
过 0.121731736 0.3860237 -1.9033222 1.5758119 0.94522333 -0.4259878 -0.2698569 0.4384246 0.7188978 -0.7532064 -1.6315578
那些 0.45743403 1.2913349 -2.5765486 0.90141237 1.7384907 -0.37805778 -1.0499278 1.2695692 0.31358063 1.9277151 -2.6445665
泰洛姆 -2.052397 1.412777 -0.98174316 2.2561595 2.1086926 -1.6593356 0.21685094 1.8892143 0.23066236 0.93031484 -0.3409901
摄影 0.49948815 0.5215474 1.1901456 -1.2615869 1.2966465 0.32528308 0.5747894 -1.2582523 -2.0363638 -0.10059506 -1.9561195
800 3.251441 -0.88967067 1.2152646 2.4201658 0.50004184 0.4704357 0.76681936 0.9235782 -0.9699834 0.25937295 -1.5789793
工作 -0.10630508 0.57000554 -1.050893 0.8223804 1.2570359 0.17024249 -0.20519206 0.09135552 -0.017464155 -0.6688364 -1.3804508
出版 -2.8361592 1.2344421 0.9125385 -1.7092927 1.5063481 1.3932356 2.3487372 2.0392709 -2.9661555 0.43389103 -0.7596828
推荐 -1.7989713 -0.48588097 0.0874927 -0.0788079 1.1867453 -0.5199136 0.04337313 1.4298013 -0.7167233 -0.48933133 -1.4120246
21 1.453376 -0.23801342 0.59919095 1.9763082 -0.036464345 0.5137207 2.4972792 -0.113272816 -1.2336912 0.15756598 -1.3813695
18 1.565352 -0.6667328 1.0057148 1.5961215 0.18064415 0.47022325 1.6491693 0.308699 -1.5590243 -0.22495092 -1.3486488
身体 -0.2855276 0.6992352 -1.1337167 0.5247196 1.2267112 -0.48260748 -0.4574467 -0.7295781 -0.9016496 -0.42143166 -1.3608401
自我 -1.0441068 0.67209494 -1.9338845 1.4307479 1.2720474 -0.3761781 -1.0470419 0.54634964 -0.2544092 -0.10533852 -1.065496
16 1.8887204 -0.6136114 0.65257967 1.6029311 0.06886661 0.49435937 1.6921482 0.3284345 -1.0474226 0.2927492 -1.2519143
结合 -0.10883133 1.4152966 -0.23209839 -0.6276096 1.1824608 0.29087803 -0.60050875 -0.22813691 -1.6743516 0.24116561 -1.4309138
学员 -0.87611115 0.28319848 -1.4557177 1.4697202 0.74438065 0.04701981 0.30804786 1.3740122 0.31426117 -0.104354516 -1.3721387
17 1.203135 -0.1855017 0.2724552 1.6229748 -0.8730868 0.55890435 2.0755763 -0.3121299 -1.2243009 0.6215639 -1.5075941
精彩 0.74001014 0.012399009 -1.0988766 0.9745693 0.83172137 0.27221766 0.34634143 2.9546423 -0.03252285 0.48569784 -2.2440863
教育 -0.2573628 0.37100115 0.91900986 -0.8294514 1.0256925 0.82289124 1.1896931 -0.12539455 -2.0795434 0.28939244 -1.1077094
支持 -0.09405734 0.8172894 -0.37170076 -0.2861231 1.4681745 0.36683592 -0.23867261 0.13407913 -0.6475819 -0.07918351 -1.1769599
这样 0.4264862 0.82136434 -2.0761611 1.2022359 2.010443 -0.19511622 -0.75353914 0.21242262 0.09668794 -0.9458786 -1.9864755
奖 0.7367787 0.39780825 1.4938549 -0.52398837 0.15903172 0.034226008 1.7204107 -1.0391198 -2.3314607 1.839784 -1.0430181
像 -0.56348133 0.47004426 -1.669839 2.0376985 0.5326179 -0.68644434 -0.9659746 0.3078918 0.49477786 -0.1956013 -1.6433756
发现 0.13624914 0.52169406 -2.1141887 1.260058 1.5215633 -0.16809 -0.25855795 -0.0141951265 0.38533935 -0.85505587 -1.7343098
全球 -0.08284458 0.3289802 0.1884403 -1.0078909 1.4111053 0.54200906 0.18103184 -0.34055823 -0.6078822 0.34700972 -1.498147
文章 -0.43117312 -0.15593006 -1.2997842 1.4154359 0.87906975 0.1567184 0.8022633 4.058696 0.49482992 0.55687195 -1.7882596
美人 -1.117276 0.5440012 -1.9717808 2.1024468 1.7104877 -0.32535252 -1.0916038 0.9975635 0.8044906 -0.94431627 -1.5737469
in 0.16813889 -0.72573084 3.1888547 2.11966 0.7343279 0.6289641 1.3556981 0.21045542 -0.96220356 1.1846244 -0.16363873
阅读 1.6178201 0.4477298 -0.544361 1.3033196 0.32342646 0.75850564 0.98455536 2.2813125 0.96157366 0.9409012 -2.0336661
国家 0.2899449 0.92995 0.40894037 -0.8971511 1.1572125 -0.015394058 0.2353982 -0.8201181 -1.1160576 -0.15716693 -1.7591379
像是 -0.5371329 0.095145375 -2.6053371 -0.50692517 0.9458166 -1.9786263 0.7066826 1.577384 -0.760245 1.1577072 -4.0538673
如 0.12998182 0.25466383 0.21110694 -0.034828123 0.881674 0.9734766 -0.31023252 -0.051598556 -0.8112823 -0.29469895 -1.4826924
除了 -0.06462019 0.6511246 -0.67698395 -0.30322587 1.1624546 0.33504653 -0.36554608 -0.19434768 -0.8691462 -0.30832112 -0.95995504
展示 -0.39819717 0.5178621 0.8447457 3.067922 1.7761458 -0.30287 1.2604094 -1.0213162 0.8058489 -1.4834309 -1.1673679
人生 -0.08701629 -0.042148344 -2.1856303 1.7870793 1.5200686 -1.1078877 0.25497928 1.3020755 0.88639206 -0.69100565 -2.5033402
陈 2.40388 0.8792451 1.1492858 0.54097486 0.34303388 1.0201927 1.0794858 -1.4264152 -2.265259 -1.8751293 -1.9583274
感知 -0.57453305 2.9163067 -1.511625 1.7315283 0.482845 -0.6351309 1.8800231 -0.48007497 -2.9544837 0.1466285 0.16040716
1992 0.085942365 2.441436 1.6807334 1.3485646 -1.2074965 1.473675 2.7012117 -0.13017963 -3.227265 -1.0185101 -1.3352631
想像 0.05710951 2.6219356 -0.09101029 -0.87278444 1.0705695 0.21266371 -0.5216744 -0.3570245 -1.5061189 -0.056858268 -1.1155837
议题 -0.2270349 0.7521831 0.07343941 -0.9851826 1.4750631 0.4548973 0.29516104 0.28889537 -0.818896 -0.13393068 -1.7516531
交流 -0.3099489 1.1985428 0.0014306331 -0.7206706 0.9032048 0.39409468 -0.96072763 -0.03971653 -1.3773057 0.5297007 -1.2461796
技术 -0.15519987 1.2203282 -0.79178685 -0.6922622 1.761734 0.025325183 -0.41493148 -0.4301515 -1.1079916 -0.42976576 -1.7576799
公布 0.62066543 1.6478366 0.21666701 1.0490445 -0.13137563 1.5806811 0.548854 -1.9790063 -2.1120603 0.08746585 -2.7391794
历史 0.21772166 0.92270947 -0.18309289 -0.7680908 1.515393 0.12455953 -0.5673727 -0.6539692 -1.4081063 -0.19401346 -1.5163913
进入 -0.038790308 0.26798582 -1.8541623 1.2225034 0.851737 -0.46520367 -0.33549935 0.2767392 -0.13583726 -0.05359071 -1.2602645
那 0.3372836 0.543047 -1.8602141 1.4857354 1.2512022 -0.08925288 -0.6069103 0.2028595 0.37071174 -0.6900192 -1.537312
选择 -0.5140522 0.3564563 -0.2275019 1.4011846 2.6114254 -1.2107949 -0.58382756 1.2687415 -0.74004996 -1.0709441 -0.24911758
节目 -0.59264696 0.67091656 0.755522 -0.44213334 0.8054375 0.049600504 -0.11415207 -0.12529416 -1.1651981 1.8243402 -1.0296507
讲座 -1.3026963 -0.92563146 1.3568443 -0.5756849 0.1640331 0.45218074 0.9554938 1.2288975 -0.09136444 0.55606943 -0.895819
欧洲 0.1671312 0.1995386 0.1961212 0.045030124 1.3167332 0.4270068 1.8040082 0.48467234 0.30871773 -1.0926278 -1.2582618
体验 -0.27539277 0.052192915 -0.8922852 0.2421042 0.3178315 -0.46041462 0.42399755 0.3244374 -0.42801076 -0.042700548 -1.1539804
最大 -1.2919155 0.7542913 -0.28511316 3.0551 0.1538666 -2.2668915 1.5165507 -0.52419275 -0.48170063 -0.8390483 -2.7941465
色彩 -0.19626455 1.575182 -0.4709354 2.0906956 1.8904027 -0.560569 -0.45522738 0.19079773 -2.9541693 -0.24549618 0.33344525
国内外 0.22223018 0.4680281 2.460496 1.4051632 -0.23074387 -1.4085591 0.80414635 0.3492592 -1.4530729 -1.821694 -2.2775865
视野 0.22553702 1.9309933 0.22172056 2.6264386 0.12968358 0.79215693 -0.4289731 -0.47041854 -1.4460475 2.2076042 -0.40212718
已 -0.06657595 0.5287239 -0.37703845 0.59284866 1.0093445 0.3494638 0.45535856 -0.16140082 -0.21481617 -0.32629585 -1.6195204
独立 -1.1758422 0.48197278 0.025970608 2.7571974 0.039263114 -1.9547156 1.5888975 -0.5133974 -0.93535334 -0.63482916 -2.8611677
爱情 0.020210275 1.4479828 -2.909849 2.9443123 1.8543223 -0.039313313 0.38505393 0.7446931 -1.0635886 -0.81232303 0.31797954
讯息 -0.72035503 0.4356761 -1.1561897 0.6761872 1.4619312 -0.3692784 0.07721199 0.29014692 0.11578136 -0.77125084 -0.96890116
这种 -0.0013276606 1.1214569 -1.2994605 2.141665 1.9623415 0.22256185 -0.55380744 2.2772253 0.3927115 -1.2645817 -0.59259945
一直 0.5619747 0.51493984 -1.4853264 0.9699112 1.7733572 0.28343567 -0.34488165 0.33572096 0.55457884 -1.1388496 -1.9124848
市场 0.5463347 0.7754014 0.49920464 -0.6469155 1.3438323 0.46981433 -0.61064255 -0.18440859 -1.0032364 0.986902 -1.4346787
官网 -2.575298 0.16453488 0.88562936 -0.124058686 1.5985957 0.54735774 4.28294 2.1725154 -0.6826122 -0.9955484 -1.6908809
通灵 -1.9231439 1.6083455 -0.3323223 3.0278897 0.9321706 -0.23832761 -0.29185688 1.7842132 -0.4434849 1.5739813 -0.83115983
超过 -0.33230895 -0.27387562 1.5769479 2.8676891 -0.27193332 -1.4653288 1.9494917 0.24291915 -1.1913844 -1.2486513 -2.6847932
论坛 -0.5600782 1.3062973 0.8727936 0.4361922 0.45462087 0.76001817 -0.7702924 -0.1775128 -2.571305 0.7327753 -1.4461647
开幕 0.57686615 0.2788422 0.5688213 -0.37469652 0.038507085 0.8431933 1.3168975 -0.2043808 -1.5214779 0.84845597 -1.1445538
身 -2.8352103 0.004845093 -0.842978 0.8433793 1.0745379 -1.840245 -0.9655921 1.4788616 0.9695788 -0.4351998 -2.1318483
传统 -0.06538673 0.83652776 0.060907427 -0.7386555 1.462261 0.55249745 -0.36231068 -0.1349508 -1.0697803 0.088352695 -1.5486434
元素 -0.6113439 1.1710839 -0.8679233 0.02934641 1.5374125 0.2662349 -0.63061154 0.02269386 -1.5371356 -0.13313259 -1.3889328
500 2.5395553 -0.8876572 0.6972725 2.0348322 0.20228045 0.15057214 0.7493241 0.63351536 -0.61130494 0.23857348 -0.9580779
小 0.47270212 0.021513393 -0.49409056 1.119461 0.7830887 -0.041463125 -0.04943137 0.3011202 -0.23632632 -0.3619407 -1.3087344
印记 -0.8268637 1.2453338 -0.6546565 2.9222631 -0.03627703 -0.24296819 -1.6012125 1.253591 -1.7222869 2.9602797 -0.69396085
网站 -0.4447793 1.2911454 0.012484156 0.6193399 3.2560656 1.315912 0.16255271 0.26748693 0.83166236 -1.7953182 -0.70758843
虽然 1.207742 0.09129887 -1.192724 1.9665178 1.1297568 0.29712185 0.35428154 3.3328393 0.25818616 0.6292213 -1.8872154
所有 -0.41392836 0.06562459 -0.7278225 0.42007908 1.4436766 -0.060144432 -0.49819747 -0.037292134 -0.06413164 -0.4001577 -1.4008292
才能 0.14512728 0.13862568 -0.77006185 1.9434988 2.9878552 0.23069209 0.29478472 0.48533595 -0.28502354 -3.0233328 -1.1259081
心中 0.7260211 0.60169953 0.5314684 1.5546497 2.3509583 -0.46404603 1.1349719 1.5606846 1.5061886 -1.6278551 -2.2613828
声音 0.36680558 -0.015757233 -1.0862372 0.69604367 0.58035344 0.375965 0.4223373 -0.19208096 -1.171423 -0.33892727 -1.1891748
基金会 0.5123014 0.6111991 1.0258045 -0.5854188 1.0488888 0.6117235 0.46525937 -0.5485993 -1.8401121 0.44988427 -1.2222052
占卜 -2.5495708 1.2751527 -0.6193387 2.583002 0.48426664 -0.45388 -0.7276631 1.4551686 -0.54284114 1.9931033 -1.333575
当时 0.21980442 0.7777757 -1.101257 0.86772835 1.409858 0.3170923 -0.35729977 0.508059 0.47520158 -0.86245024 -1.6655855
新锐 -1.1860852 1.8158252 -0.42504224 0.46905687 0.40976858 1.3568666 -0.6113725 -0.8184052 -3.0480204 0.8075453 -3.6897995
精神 0.44310212 0.87476265 -0.30720776 -0.15600313 1.658135 0.24860255 -0.92377067 -0.38146192 -1.123001 -0.13945143 -1.6420281
不断 -0.081176534 0.571596 -1.3988105 0.7089345 1.6403383 -0.10490007 -0.7685825 -0.04612826 -0.23977375 -0.5270317 -1.8379117
行动 -0.20572016 1.4352056 -0.20661029 -0.28624272 1.1270313 0.37200013 0.18758018 -0.014415409 -1.4196372 0.45401394 -1.453686
很多 0.005519347 0.7365171 -2.0422685 1.1942693 1.3769497 -0.06561496 -0.5526704 0.30387506 0.44481328 -0.73555505 -1.8671281
甚至 0.059027843 0.6593839 -1.101324 1.171928 1.2015656 0.065537795 -0.117574185 0.5083276 0.2569612 -0.71067166 -1.9244684
期间 -0.9930552 -0.013131013 0.5235483 0.26923442 0.48932028 0.17679456 -0.92777675 -0.40769225 -0.24130629 -0.42109096 -1.8796774
校准 -1.2860129 0.80425215 -1.410592 2.4499822 1.1032463 -0.35060975 1.0556635 1.9636321 -1.2650175 0.70081794 0.29672328
大台北 1.5467594 2.4601483 0.898059 1.0919935 -0.5412188 -0.65914345 0.453534 1.0724499 -1.2134733 2.98689 -0.9082745
重新 -0.16998799 1.2803055 -0.63470644 -0.052244693 1.4420803 0.017469237 -0.74866396 -0.26776227 -1.0628011 0.053256974 -1.3232893
遇到 0.41157055 1.0629083 -3.0424423 2.4271607 2.0328798 -0.09482956 0.7624018 0.92851835 -1.523614 -1.0022229 -0.21620114
好 0.5870148 0.45650944 -1.2931441 0.9397573 1.3090872 0.4437574 -0.1263531 -0.11188704 0.3521095 -0.7822026 -1.1387899
多元 -0.086694695 1.1756833 0.17004524 -1.1762335 1.0456474 0.18234503 -0.52827746 -0.4502903 -1.4449704 0.27101833 -1.5862808
前来 -0.40375665 0.7943052 -0.6987176 3.5402806 2.0926619 0.25555235 0.25770357 1.439233 0.14069934 -0.97652453 0.04978324
需要 -0.173915 -0.059480276 -1.2790068 0.6155646 1.2396586 0.18761282 -0.22692901 0.57109255 0.25218597 -0.6086698 -1.7693646
蜕变 -0.49150386 0.11256873 -0.38737535 1.2559427 1.0068041 -0.37174937 1.1538249 0.8106877 -0.74698645 0.2839636 -1.5386884
崭新 0.62888724 2.4806259 0.9651439 2.2887018 0.37833074 0.342856 -0.5267031 0.5932899 -1.3090676 2.9509318 -0.76624525
向 0.56820315 0.5338168 -0.7373405 0.50065297 1.2586427 0.64754045 -0.16519785 0.17534582 -0.38396692 -0.5793643 -1.5302434
现在 0.9132954 1.0701841 -1.2493932 1.1630849 1.4399614 0.56366086 -0.2519117 0.13797365 0.12775876 -1.3063679 -1.8150351
思考 0.16188093 1.0078014 -0.79300654 -0.3269945 1.455951 0.37274304 -0.803082 -0.569374 -0.86035854 -0.5137832 -1.6894819
它 0.18367232 0.79132384 -1.336436 0.21975656 1.3746887 -0.0759693 -0.46270657 -0.27381447 -0.29863998 -0.54288125 -2.0636094
那个 -0.99774146 0.33988214 -0.6251708 0.06871854 2.3256621 1.2429978 1.7109306 1.8690097 0.2096197 -2.0389986 -1.8454679
轻松 -2.0882847 0.29185796 0.13728797 0.6202366 1.153949 -0.5017657 0.10482113 1.3672297 0.02722343 -0.079455614 -2.7912717
本次 0.113406934 0.31962606 0.028651655 -1.0911218 0.87994516 0.44773456 0.41279918 -0.40076908 -1.9922037 -0.2592504 -1.2501333
下午 1.3063365 -0.41729304 0.20594491 2.148444 -0.52576196 0.6213561 3.0662487 1.1917273 0.39294642 0.43918908 -1.8778889
之旅 -0.71373445 2.1375551 -0.23992826 2.8368783 2.0202584 -0.24743551 -0.3723187 0.62538016 -0.7467768 0.81183386 0.9440071
深耕 0.50462437 2.8546422 -1.0658871 0.8425333 0.4556346 -0.13309786 2.5715814 -1.5634359 -1.7188559 -0.45274094 -1.2704219
国外 0.37772557 -0.09189139 -1.3879195 -0.4834989 1.309672 -1.2471962 0.9106143 1.4311181 0.07688455 0.25019112 -3.7067363
用 0.30782962 0.1839021 -1.211711 0.7360626 1.4745494 -0.0699353 -0.52668375 0.5118493 0.21485029 -0.63491815 -1.6928118
叙事 -0.27459782 0.81326413 -0.10465821 0.2809117 2.1148272 -0.8982473 0.3180482 -0.111248486 -3.4935443 0.16358149 -0.09313319
曾 0.0028029638 1.0745885 -0.033936612 0.3614186 0.71163154 0.5346939 -0.6741132 -0.1163873 -0.88860106 0.24573784 -0.90069216
使用 -0.7913476 -0.6688373 0.035153158 1.0430033 0.78093153 -0.19185232 0.5571347 0.49739584 -0.002343396 0.096225366 -1.2554771
完 0.83027756 0.13211226 0.012485479 2.0986345 2.316795 -0.5116515 0.8086145 1.3240874 1.7313734 -1.4565711 -2.6288562
一样 0.147789 0.27696198 -1.9530575 1.656829 1.2705142 -0.60264194 -0.0023664457 1.1113642 0.17016518 -0.45406625 -2.6728542
粉丝 -1.3243518 -0.46569562 0.18327567 1.2199981 2.2413785 -1.3762909 -0.30539462 2.2279909 -1.2992973 -0.11714728 0.39773893
不是 0.2849545 0.46757606 -1.5121435 0.6372332 1.6429224 0.16706972 -0.46623045 0.08272374 0.24237521 -0.80758804 -2.0437102
通过 -0.518303 1.6669053 -1.6147046 1.9072957 1.8203079 -1.4545215 0.81354 -0.46320337 -3.5646973 -0.75522715 -0.1481599
形式 0.1238252 0.75361025 0.1503367 -0.41886842 1.1736199 0.07942238 -0.84276086 -0.3305065 -1.1427516 -0.10174051 -1.6601073
纹理 0.20379072 2.4700322 1.7596774 1.1764055 0.6455538 -1.9698277 0.219143 -1.8891971 -1.6854869 -0.89635646 -2.431129
协助 -0.7846475 0.8138601 -1.1435682 1.0868112 1.4357127 -0.12063779 -0.3412181 0.47737134 -0.36287808 0.19207124 -0.92087173
近期 -2.099119 -0.4827291 -0.14032486 0.09316064 1.0195676 -0.5868255 0.40008584 1.77771 -0.13551174 -0.55370003 -1.3142827
对话 0.5073261 0.9564058 -0.64545363 -0.24312131 0.9811093 0.1967794 -0.39335063 -0.19322051 -0.91549677 0.06618427 -1.2806871
之前 0.4090158 -0.49790016 -1.1671506 1.2641361 0.598977 0.5781904 0.86238945 0.12450707 0.0036362659 -0.82953614 -1.6977216
英国 -0.9856003 0.45007476 0.061615456 0.026209662 1.0808961 0.5687516 0.047384772 0.5805553 -0.67387754 -0.17926194 -1.4234325
原创 -0.33799538 1.5470266 0.43232 3.0045118 -0.28731793 -1.1663988 2.5036757 -0.6149229 -0.79203653 -1.6565181 -2.3753996
它们 -1.1520379 -0.36492625 -0.19624059 0.09370598 2.5219622 0.9532091 2.9304109 1.6355654 0.044581186 -1.7200463 -2.5397196
400 -0.30672857 0.18991497 1.8742578 2.5929585 -0.1551492 -1.5373915 1.5807768 0.73184025 -1.0290512 -1.6373367 -2.7543619
驻村 0.47597298 0.2185114 0.52931607 -0.5991378 1.8199071 0.14993182 -0.48089504 -0.74119824 -1.0487019 0.26844808 -0.9731642
代表 0.0371394 0.66072476 -0.059398003 0.21485063 1.1450372 0.34590456 -0.30383834 -0.6072256 -0.80415934 -0.22818363 -1.5474088
美国 0.056231502 0.15215604 0.22447357 -0.14793126 1.1716615 0.8358516 0.48727435 -0.29992655 -1.0545045 -0.29230917 -1.4014064
工程 -2.2458224 2.0087826 -0.0044319932 0.118486166 0.3966677 0.9983202 0.3733468 -0.906491 -3.6988945 -0.16354358 -2.0967534
面对 0.40307215 0.9592699 -0.9538859 0.09725891 1.9400288 0.23551276 -0.44075102 0.13476679 -0.3817674 -0.37261045 -1.3991411
台中 0.7057579 1.0296884 0.28013486 2.5776336 1.8206975 1.1318555 0.62088037 0.994714 0.46425346 -1.1387211 -0.5055435
这片 1.0906616 0.53854 0.4872915 1.1218257 2.5332375 -0.045767874 1.0709858 -0.015413751 -1.951024 -3.9569075 -1.120886
太空 -0.95288527 1.4590718 0.35525852 3.8722765 1.0145081 0.026349872 -0.742694 -1.0375339 -3.0207663 1.2759371 -1.376555
小孩 -1.5661068 0.68561876 -0.08260307 2.2417498 1.1374006 -0.7006016 0.21890414 1.8997103 0.16401125 0.39262992 -0.5237372
天堂 -0.39954567 1.9844631 -0.61503917 2.975086 2.074853 -0.82280433 -0.79144967 0.30537912 -0.8530441 0.7826412 0.4697644
已经 0.36690596 0.38871276 -1.7778354 1.1498365 1.4080652 -0.25070637 -0.19735058 0.20834814 0.38886678 -0.957751 -1.950832
机会 0.7009883 0.535333 -1.6307662 0.4913676 1.4128753 0.55289805 -0.520719 0.060179744 -0.46795997 -0.7109092 -1.2237157
打造 -0.11390223 1.2522575 0.14887524 -0.43124336 0.3363545 -0.09440343 0.06736423 -0.8403408 -1.6038183 0.43864194 -1.1032013
s 0.009102479 0.23271126 2.672342 1.7657808 0.40520844 -1.0641339 1.4863167 1.6794392 -2.6281009 1.3882598 -0.12600902
城 -1.4146545 0.90543115 1.8459698 -0.5217281 1.8410935 0.14088707 -0.34543124 1.3714577 -2.5825982 2.5429723 -0.7103127
无法 0.21347277 0.6750204 -0.92564785 0.47661233 1.7122053 0.39394224 -0.33365747 0.12826258 -0.056064676 -0.9638224 -1.534878
忠泰 -0.49361965 3.1997306 -0.67108095 2.1816921 -0.11621743 -0.51434934 2.8275833 -1.0426866 -2.3281252 0.28759256 -0.5199184
视觉 -0.053645883 0.80955136 0.006263144 -0.777411 1.6800772 0.23651978 -0.15881114 -0.31091458 -1.5184464 -0.28895962 -1.0247328
幻想 -1.8910191 2.105625 0.11140407 0.32485387 0.3535645 0.54411876 0.59270364 -0.91476613 -3.6450195 -0.15303403 -1.4511743
给 0.09294322 0.25228965 -0.9292801 0.5217422 0.8680016 -0.008844468 -0.06142702 0.54554075 0.27251327 -0.6198625 -0.84052193
展演 -0.15812689 0.63477206 0.67519784 -0.64404875 1.2025831 0.24662039 0.40587607 -0.16868968 -2.159348 0.09920997 -0.91113806
解读 -1.0314261 0.95033854 -1.3175839 1.6070279 1.3124044 0.036867004 -0.9777462 1.3016055 0.55002147 -0.3428125 -1.215446
便 -0.08640683 0.46800542 -0.7392273 0.5094035 1.1089802 0.029174803 -0.21323761 -0.0027092465 -0.12578803 -0.6172009 -1.2632905
场馆 -1.5238165 0.18362841 1.6213889 2.5097222 0.9047726 -2.1416817 1.9885294 -0.63471836 -1.0345757 -0.54110676 -1.6038777
持续 -0.14472517 0.91776264 -0.23485857 -0.12977189 0.8018118 0.12553038 -0.39123493 -0.33709732 -1.0394266 -0.015969813 -0.91082644
几何 -1.2233232 0.4189894 -1.2679375 1.9165587 1.5250974 -1.2468812 0.23408686 2.129736 0.006166785 0.14117171 -1.163568
领域 -0.5771007 1.0785369 -0.110009275 -0.3150881 1.1180323 0.86465305 -0.71455383 -0.024936935 -1.1240606 0.19177562 -1.0940892
50 1.6145937 -0.2896945 0.8529398 1.5522115 0.16063313 0.6788674 1.8287616 0.41409555 -1.1472353 0.34450245 -1.329701
参展 0.56546175 0.15033664 1.1236696 -0.5844046 0.94165885 0.9442088 -0.84108335 -0.1667027 -1.8989388 0.27344352 -0.9600138
包括 -0.24528715 0.5385936 -0.22328357 0.14897618 0.97515744 0.39743736 -0.49112576 0.19102861 -0.39056313 0.19402175 -0.9103982
大众 -1.1137713 2.2022927 -1.0521443 0.12748927 1.2193865 -0.54545426 -0.44629475 1.4882909 -2.0083125 0.9228376 -0.74498254
这座 0.6189831 2.8326373 -1.2672817 1.6638225 0.38601184 -0.45488322 2.3822389 -2.000851 -1.6063703 -0.7726792 -1.6196841
潜意识 2.3974442 1.0184522 -2.6869767 0.8521872 2.376146 0.24879783 0.71589845 -0.46629912 -0.98053294 0.51723725 -2.3315938
首页 0.25706777 -0.27804235 0.9762023 0.50380623 1.359528 -1.0290116 0.90268964 0.5530817 0.2246587 -0.39213014 -0.41858655
多媒体 -0.6639866 1.0179708 0.4340438 3.6198747 0.8305494 -0.16119403 -1.2924292 -0.2222333 -2.6617026 2.2827134 -1.49502
消息 -1.5619576 -0.38971564 0.9487962 0.5761574 1.7278663 -1.0221739 0.47857445 1.599317 -0.49385312 -0.599939 -2.53143
能够 0.62636435 0.79315245 -1.376894 0.17518842 1.3333465 0.04552724 -0.88230604 -0.014770905 -0.47267902 -0.104190655 -1.4085183
祭 -0.7276943 0.58935964 0.101290844 0.12378474 2.4006565 1.6441361 1.7835653 1.0691645 -0.13268447 -2.2957287 -1.8737242
案例 -2.144245 0.7946707 0.31067574 0.7627695 1.1088805 -0.39416173 -0.20565431 0.78782666 -0.17381184 0.28477436 -2.127103
凝视 0.0045695426 0.45844653 -1.5765213 2.8514066 1.5178269 -1.7349384 1.099149 -0.4603103 -3.0329556 -0.9865773 -0.17776972
法国 0.36957487 0.35740677 0.8692478 -0.2697437 0.628747 0.5244245 -0.03689643 -0.4396134 -1.0474931 0.05712265 -1.5504259
创作者 0.4264753 0.5092233 -0.17517775 -0.6241958 1.2767593 0.27410528 -0.71766937 -0.35433376 -1.2566808 -0.08367989 -1.7641469
Mira 0.16361077 0.46237326 -2.070842 1.9285358 0.6312188 -0.15190756 -0.41337654 1.8591304 -0.5972969 -0.15627375 -0.9653601
一对一 -1.1612757 2.5855484 0.12920354 3.5045547 2.4450762 -0.15613353 -0.039879672 1.3488175 -0.6630573 0.87666327 1.0815588
首日 -2.2775018 1.1645606 2.6375623 1.1170337 0.58321357 -1.4969485 0.23177686 -1.0014338 -0.5572306 -0.3641875 -3.3467767
刘国松 -1.0673882 1.8314598 0.42661995 3.9464512 1.2837497 0.07045383 -0.4892723 -0.68027055 -2.8422682 0.946475 -1.2817278
此 -0.20527093 0.23060197 -1.000737 0.79686743 1.3559653 -0.6319061 -0.34748605 -0.22598484 -0.4408571 -0.057294462 -1.1385417
修复 -1.5619143 0.43319386 2.4359276 2.1469467 1.9698578 -1.9312668 1.8400037 -0.3921333 -0.71173817 -1.121179 -1.9839956
共识 -0.9488208 2.4362102 0.30630082 0.70688105 1.1113063 -0.26842067 0.9373962 -1.2374783 -3.7651455 -0.1977951 -0.2234279
其中 -0.06562342 0.46795648 -0.67574674 0.7158911 0.8579623 0.06664882 -0.50785744 -0.031774405 -0.013581636 -0.5173132 -1.2027518
消逝 1.3688465 1.8991975 0.23914695 1.8126172 -0.34391364 0.13444701 1.396815 -0.91617835 -1.0056618 -3.0314758 -1.9517807
介面 0.2874135 2.2632039 0.62482476 2.737596 0.2967269 0.4901621 -0.08343343 0.3116456 -1.3169366 2.6658435 -0.9102719
28 0.90501297 -0.1680344 0.77093124 1.4129872 0.19798231 0.46823987 2.2264304 -0.3063906 -1.1890832 0.21238247 -1.1170925
史哲 -1.0581987 0.27569506 2.0303516 2.795761 2.438142 -1.1836851 1.4313645 -0.2777973 0.47754565 -2.2183228 -1.8154336
并非 0.72885114 1.5144738 0.5507495 2.6596398 2.3860037 0.8175719 0.684732 1.765407 1.215103 -1.5777369 -1.3134632
回来 -1.1341872 1.2374111 -0.7084354 3.3372214 0.27566373 -2.0512865 2.1445754 -0.5969525 -0.45776144 -0.5635237 -2.3864746
金钱 0.110198975 1.5108901 -2.3726487 2.5837443 1.9406677 0.31286705 0.79775006 0.718421 -1.2939558 -1.0529981 0.024954174
移民 0.13520974 0.29514775 0.003996272 0.28715414 1.5279657 0.41581637 0.67335194 0.15343638 0.32546616 -0.36366892 -2.137903
亦 0.18632334 0.6867088 -0.27544883 -0.13828537 1.1675856 0.359948 -0.20536143 -0.39244956 -0.9455 -0.20921895 -1.5105289
24 1.3501717 -0.49490187 0.6470686 1.5547702 -0.11960382 0.637194 1.7534702 -0.18341337 -1.2635533 -0.13026525 -1.2779484
两档 -1.45801 1.7138592 -0.4491948 0.43157986 0.044575684 1.3008152 -0.16298474 -0.8903736 -3.089666 0.51172745 -3.2320242
何许 -0.36487997 1.6551535 0.5266414 3.61858 0.5306419 1.356943 0.047187973 -0.91295016 -2.3623514 1.5375217 -0.6343588
在内 -1.0788702 0.16476932 2.5583608 2.3580709 2.276239 -1.8686196 1.8397844 -0.13791686 -0.04048192 -2.011327 -1.7897755
参加 -0.45328164 -0.2507071 -0.2455989 0.9839551 0.7494966 -0.14048637 0.839881 0.6793089 0.4157153 -0.14325328 -0.8231989
今生 -2.0235345 1.5715135 -0.63751346 2.3318129 0.3717764 -0.24226446 -1.073572 1.6218542 -0.34561974 1.8787036 -1.3043901
a -0.16504 -0.25205132 3.17113 2.750718 1.3181059 0.7029098 1.9000735 0.62953615 -0.9914947 0.97559726 -0.58557796
探讨 0.008550405 1.1174722 -0.3209021 -0.45097396 1.228291 -0.035383843 -0.53549224 -0.35625434 -0.8803277 -0.13702936 -1.456704
状态 0.13220353 0.8057888 -1.4357044 0.64069456 1.5433106 -0.2465997 -0.58914816 -0.100137055 -0.14778 -0.3442143 -1.4611728
相遇 -0.16002955 1.9286375 0.046414126 2.575616 2.7312484 -1.1439316 -1.287613 -0.54732186 -0.78204083 0.5430402 0.092353076
交通 -1.6643674 -0.8215161 0.64458257 0.3996932 1.7589074 -1.3093456 -0.05770874 2.1234553 -0.8696475 -0.39818648 -0.8024
首座 -1.3315576 0.17609616 1.0387467 2.780287 0.69545966 -1.9269764 2.1781614 -0.73142326 -1.1101408 -0.42933562 -1.6178393
请问 -1.1987473 0.22647111 0.018647797 -0.021701125 2.4557316 1.1644293 2.6586597 1.8398845 0.15392996 -1.6769067 -2.2240512
主题乐园 -2.0792177 1.9088601 0.17606357 0.39116353 0.7185514 0.22349626 0.70107716 -0.8096176 -3.7128925 -0.35630026 -1.016731
礼 -2.7981455 0.5024951 3.1697876 1.6619247 1.3561838 -1.1712201 0.75164264 0.35563892 -0.31976277 -0.12323869 -2.7907324
趣谈 -2.0717285 -0.06793698 0.675688 0.41656825 1.4241501 -1.2704374 0.06397197 2.0877032 -0.5803278 0.6492008 -1.5818684
一些 0.29273924 0.49804494 -1.2888453 0.86993676 1.3454785 -0.65147024 -0.26971397 0.6811268 0.54503334 -0.6013611 -1.2989371
com -0.3632397 0.13377187 3.0439422 1.9883814 2.5134635 1.5006562 2.2459576 0.48625007 0.54933983 1.0253911 -0.72266704
展场 0.6131677 0.14452818 0.7553824 -0.5540878 1.3802049 0.015752409 0.817388 -1.2698432 -1.4692059 0.24129558 -1.8414729
时常 1.3006344 1.2093724 -0.22407362 0.5593357 2.0133004 0.13102135 -0.15930437 0.9307009 1.4645513 1.704972 -1.702574
只是 0.00069341506 0.5160897 -1.3400421 0.7563068 1.5694238 0.07082081 -0.41155848 0.16618022 0.345977 -0.5984172 -1.7092127
缝合 -1.4186723 1.8881896 2.1780417 0.92825186 0.7792005 -1.6190768 0.009979277 -1.186104 -0.8951856 -0.7555164 -3.2172427
诈骗 -0.7892346 1.939513 -2.5502207 2.5880044 1.5962268 0.4914845 0.7491977 0.8790076 -0.77531135 -0.75552094 -0.2952296
觉 -1.7550482 2.2746592 0.103457764 0.48506847 0.8803911 -0.13108955 1.0889889 -1.1787753 -3.761967 -0.004490916 -0.36818263
境界 0.9318223 2.4805756 0.7942496 1.9234238 -0.69290936 -0.6886635 0.65391374 0.6438774 -1.299795 2.6665897 -1.6939533
莫名 0.65459347 0.7303769 1.5474764 1.7761166 2.1116939 -0.06865228 1.21778 1.9515469 1.3770754 -1.6838775 -1.7494282
遥望 1.1175874 1.5800734 0.2487231 1.5580007 1.2351339 0.3151484 1.0931268 0.09542529 -1.753202 -3.6194744 -1.9135283
迈迎 -2.6276002 0.8366187 3.0952373 1.385962 1.0434889 -1.2506012 0.6588799 -0.27268168 -0.419907 -0.31008524 -3.1458461
陈其 -2.7124572 0.48559296 3.1046467 1.580365 1.3163636 -1.1802084 0.75916386 -0.0158424 -0.55541354 -0.19375491 -3.0079803
修护 -1.010045 0.3003674 1.2649117 3.4444127 2.396901 -1.0351768 1.3995236 -0.3106372 0.91670656 -2.1537845 -1.5944065
挑战赛 -1.7141052 1.7515589 -0.28846943 0.106295 0.042442393 1.0813941 -0.0810843 -1.0353063 -3.3740995 -0.038456216 -2.6382754
中国 0.7592948 0.6764947 0.32057735 -0.46803057 0.9432366 0.6465015 0.27863365 -0.611123 -1.0343969 0.5695823 -1.2438186
表示 0.310865 0.5079294 0.082103215 -0.015485768 1.3243397 0.6200793 0.034609135 -0.5012441 -0.65299356 -0.7026037 -1.3631933
享好 -2.7299926 0.18607064 3.3929198 1.530082 1.7731065 -1.1137586 0.87707967 0.41174942 -0.3888094 -0.14899361 -2.7784433
内惟人 -2.4615247 0.26800707 3.2405324 1.6271257 2.139559 -1.3100605 1.056726 0.46978837 -0.36429405 -0.5260127 -2.5430503
起试 -1.9111459 0.5513045 2.9170728 1.4859331 2.153622 -1.5301584 1.2488217 0.23679005 -0.3596163 -1.0154568 -2.3195522
公海 0.85417134 3.0237815 1.1882397 1.5256642 0.7539028 -0.69388443 -0.43016288 1.462432 -0.8585918 3.4093904 -0.9677155
静心 -0.8407872 1.180812 -1.5885955 1.1742651 1.1908861 -0.7971581 -0.4811779 0.7160638 -0.49278378 0.768489 -1.295758
草原 0.5966503 0.5907794 0.46657768 1.7089344 2.5968676 -0.06498377 1.3509986 0.35359392 -1.6898203 -3.971655 -1.1899027
预见 0.36046904 2.3772528 0.34926027 2.170713 -0.6149103 -0.23267727 0.25516248 -0.12087117 -1.5513734 2.2907329 -2.7525299
艺熠 -1.8884056 1.1555425 0.8131994 -0.14988884 1.5075009 -0.18311429 0.26900154 1.3366225 -2.2223527 2.1728516 -0.23002945
看看 -1.3254776 -0.16218211 0.011661578 -0.2647039 2.579101 1.1320763 2.794971 1.9979988 -0.16364399 -1.5357065 -2.39245
水晶饰品 -2.0919902 1.1152238 -0.18583363 1.7233635 0.92729396 -0.15289642 -0.48693937 1.631759 -0.6789976 1.0817245 -0.75634736
草率 -0.36384976 1.3401703 -0.0037260244 3.4475672 -0.09421634 -1.39545 2.4234548 -0.7571985 -0.75111663 -1.4259694 -2.2763495
群 -1.7982556 0.35512376 -0.54047847 1.0641047 0.7589483 -0.60723174 -0.1108582 1.0554159 -0.69374675 0.55285525 -0.74058014
摊位 0.008038377 0.6925595 2.6071134 1.747725 0.13919468 -1.5526251 0.93305564 0.5469902 -1.6087354 -1.9870946 -2.328587
改变 0.08270463 0.6474861 -1.2905724 0.49212468 1.4778845 -0.4685675 -0.6950849 0.17267115 -0.062480345 -0.10358792 -1.090496
书展 -1.049799 0.12472109 0.5764161 3.2280245 -0.09117455 -2.0335371 1.763996 0.026347112 -1.032836 -0.87879884 -2.879688
上网 -0.12899633 -0.38617402 0.17788675 0.85903215 3.2830508 0.86036336 1.9492186 0.35570022 0.5443529 -1.6486192 -1.7309779
却是 0.91082954 0.47176838 0.13041896 2.048741 2.217603 0.067668736 0.9830173 1.1504968 1.7397908 -1.353238 -3.1879222
美不美 0.45862293 0.83349276 0.36947975 1.5779727 2.6504245 0.025400328 1.1635284 0.57023585 -1.612596 -4.200811 -1.4933836
实践 0.0699387 0.7714461 -0.4425441 -0.49177393 0.92650676 0.023983607 -0.62912494 -0.24627382 -0.9255968 0.15253286 -1.4130862
谢谢 0.09141075 0.25830546 0.62949985 2.0940979 3.017283 -2.268147 -0.66571116 -0.8356223 -1.0358626 -1.6490893 -0.68181646
汉声 2.185586 0.93550885 0.8737905 0.65744454 0.8110818 0.44322243 1.1067748 -1.4438962 -1.998337 -2.7284503 -1.7297456
还是 0.29568854 0.370665 -1.8945353 1.3848748 1.6720787 -0.17231126 -0.2532051 0.47561792 -0.0071861353 -1.0993478 -1.2178607
摄 0.5224989 -0.40498897 0.8977598 -0.17401624 1.6474404 -0.03372536 1.059065 -1.2569611 -1.093582 0.77574605 -2.0331998
华丽 0.23319274 0.6936341 -0.85833496 2.6040826 1.7407125 0.35288438 -0.19740812 2.444494 0.42199233 -1.339389 -0.39079198
以水 0.59087837 0.84109557 -0.031885482 1.5691872 2.2422984 -0.120730534 1.1218935 0.5587829 -1.6197098 -3.880272 -1.5694586
Yu 2.1283011 -0.081663646 -0.41641283 1.8833637 1.2562227 0.6720455 0.53442925 3.1827443 -0.2308933 0.9572611 -1.9854591
生猛 0.51755047 1.7071308 0.38483292 2.9226494 -0.53175807 -0.6697086 2.415744 -0.5982245 -0.8657607 -1.961584 -2.1994224
现形记 -0.63827074 2.0276084 -1.4582937 1.7059848 1.3901705 -1.0390836 1.4608471 -0.21950649 -3.6016839 -0.3428031 0.15441507
忘 1.6100208 0.83301795 -1.74255 0.6152432 1.785205 -0.63191134 1.1345128 0.36495978 0.69147706 0.26593593 -2.7591188
破纪录 -1.0717577 0.31541264 1.1030478 3.0487301 0.11145926 -1.9986097 1.9588003 0.38369605 -1.0806346 -1.0043265 -2.5732844
行事历 -1.0612584 -0.7892786 -0.8281489 0.53152114 1.5173855 -1.5513098 0.37386125 1.8382508 -0.13349137 -0.72736245 -0.14657123
传承 -0.76703274 0.74769396 -0.9769539 1.6495785 0.14490992 -0.46859035 -0.6355604 0.12564935 -1.0324067 0.5723249 -0.70566297
收藏家 0.16676046 0.53963256 -0.07764192 -0.86533326 1.4642168 0.4519699 0.57406384 0.047760256 -1.1542273 0.43648106 -1.1020266
十周年 1.2039008 1.428313 1.7827455 0.4387084 0.2564046 -0.116895355 0.2584275 0.45985723 -2.4150503 0.33011606 -1.0849979
声响 -0.1359544 0.8028973 0.4010617 -1.2716012 1.2001624 0.5257911 0.9335232 -0.7614398 -1.6801519 0.08205873 -1.509548
如果 0.2952018 0.31278738 -1.4952145 1.2688494 1.3749293 -0.32100394 -0.14974163 0.2007518 0.477478 -0.86763364 -1.3327265
在线 0.124157116 0.65371907 0.83100235 2.35051 3.3583183 -2.3397655 -1.3105925 -1.1603389 -1.1330099 -1.2705405 -0.64073163
发烧 -1.3358712 -0.7236849 0.42396864 0.47584686 1.7562789 -1.2671194 0.2757553 1.8558842 -0.5999978 -0.5241038 -2.2448785
媒材 0.6945763 0.2970662 0.68379444 -0.027210133 0.88022286 0.42270055 -0.30024597 -0.403359 -1.5735615 -0.011695032 -1.3068843
个 0.93050766 -5.9078586e-05 -0.34114835 0.72924733 -0.26634136 0.23096305 0.56368876 -0.54512084 0.17761444 -0.62571865 -0.894542
台北市立 0.11074901 1.8177888 1.3918161 0.17259793 -0.40387458 0.66144764 1.500774 -0.5831923 -2.0415351 0.4564961 -0.901358
25 1.6326987 -0.22152154 0.19116656 1.1639581 -0.43303472 0.4443677 1.259695 -0.077355504 -1.0400368 0.3148151 -1.0912932
奇迹 -1.05888 -0.24896003 -1.1644682 1.3438964 0.6641139 -1.274509 0.5705965 0.99517 -0.93456 0.49413243 -1.8110868
老 0.7752009 0.27358198 0.84775645 0.99464756 0.2451401 1.1456568 0.67044187 -0.630641 -2.0255375 0.22395597 -0.784706
风水 -1.0724103 1.7754989 -0.2861191 2.3299265 1.9654351 -0.71520704 0.053573284 0.7478566 -2.8900473 -0.10097782 1.1725382
张逸峰 -1.3694376 0.4574369 -1.3853443 1.5714697 0.61297303 -0.5946334 0.003096895 1.2425174 -0.12125476 0.22950357 -0.4277809
场域 -0.2099968 0.6266795 -0.61042714 0.113763854 0.8712541 -0.022728568 -0.07827476 0.11047397 -1.1924516 -0.09167741 -0.5241219
密码 0.12116123 0.30691388 0.90051454 0.63045037 1.4275674 -0.46326828 -0.10368187 1.0322964 -0.29228756 1.0763509 -0.42644843
经历 0.68019193 0.572088 0.22915527 1.3531063 0.31762105 -0.09239201 -0.15327433 -0.63127404 -0.7203334 0.20818546 -1.6215831
号 0.69532126 -0.14640501 1.2008166 0.9779155 0.26924777 0.50259197 1.79335 -0.02259583 -1.0786481 0.11374679 -0.79682696
主要 0.2541113 0.61126643 0.033830553 0.24871059 0.8960455 -0.04260489 0.1210058 -0.02054874 -0.055402208 -0.36613917 -1.4262472
滋养 -1.5880545 0.0024430254 0.41681075 0.76077217 1.1093167 -0.5199596 0.2261906 1.2335119 -0.062195603 -0.026573123 -2.622352
期待 0.43186966 1.2658908 -0.74936146 0.36588964 0.7319794 -0.04616164 -0.5677158 -0.33026406 -0.81716996 0.095039286 -1.1912804
人类 0.36900166 0.7920125 -1.1420288 0.50578326 1.5230922 -0.100941226 -0.57949775 -0.5728586 -0.70231664 -0.69975024 -1.3256288
聊聊 -2.0708704 -0.05149323 0.41409856 0.6494914 1.1264282 -0.5552457 0.19221021 1.2900156 0.13795847 -0.02241318 -2.708621
多余 0.8629639 1.453483 -1.4995521 0.7411202 1.5004457 -0.20592295 -1.0117481 1.4012723 0.5575259 2.2514336 -1.731237
师资 -2.0651011 0.33155072 -0.4398335 1.0254624 0.6463822 -0.59572875 0.0018724676 1.3824595 -0.7242995 0.4043317 -0.2855585
资源 -0.5484837 0.114135295 0.33052573 -0.1537699 1.2645359 0.099487156 0.645866 0.5595634 -0.9536092 -0.18448804 -1.0657439
影响 0.10713573 0.6485139 -0.58958 0.205809 1.3558551 -0.15509081 -0.35634664 0.10904641 -0.67200154 -0.4105204 -1.5912963
或是 -0.13798082 0.46212256 -0.74239576 0.9058473 1.2445656 0.15082487 -0.52067536 0.041141413 -0.15418558 -0.4377376 -1.3562812
偷偷 2.8336332 0.45070878 -2.2743115 0.9750373 2.3457577 0.30930817 1.2953823 0.42773595 -0.62059444 0.6507243 -1.8650261
天然 -1.5970671 0.84287536 0.10688626 1.4519964 1.1448172 0.024644194 -0.26732078 1.0587118 -0.61497295 0.71384436 -0.7733527
灵异 -1.7892051 1.6732799 0.41070887 2.7107322 1.7155036 -0.107106626 0.07380728 0.810858 -1.7281774 -0.17978202 0.60974747
表现 0.23822701 0.55355763 -0.3761793 0.105203174 1.4369439 -0.017040214 -0.730516 -0.29579216 -0.7848726 -0.38343984 -1.517444
更换 -1.2770268 1.7079633 -0.25006914 2.7323935 1.2576101 -0.0014624936 0.30706915 1.158177 -0.8709017 0.9377811 -0.27684125
同乐会 -0.9634958 0.6145764 -1.0752285 2.4892142 0.59744173 -0.9208825 -0.060823902 1.1515615 -0.40113446 0.55371505 0.08088286
阻止 2.9206476 0.47420347 -1.7871517 1.2659806 2.26753 0.41633752 1.1213018 1.0237234 -0.66043663 0.71323687 -1.6574086
页 -1.1170673 -0.47812644 0.27475473 1.226382 1.738104 -1.2786956 -0.09508674 2.1045427 -1.408874 0.013688329 -0.14348073
疑难杂症 -1.4657598 1.679555 0.27639702 2.4468882 1.9422808 0.077138044 -0.054462455 0.7651171 -2.0221596 -0.18368636 0.7466692
配戴 -1.4765416 -0.30988514 -0.4386889 1.0003582 1.2518104 -0.8097456 1.197462 1.9139172 -1.4331355 0.66654414 -1.0474875
不顺 1.0276941 0.6322837 -1.4385687 -0.04979353 1.580602 -0.73032254 1.2021236 0.8827423 0.6117959 0.30102155 -3.2732594
平安 -0.5694087 0.45058215 -1.3896137 2.4616506 0.93885946 -0.39207426 -0.20122457 1.151868 -0.47523436 0.3021533 -0.17125069
距离 0.46272624 1.079477 -0.04611561 -0.24095215 1.0131769 1.0429554 -0.76168615 -0.08494891 -1.0586175 -0.24412325 -0.8647725
08 1.6233916 -0.42986324 0.6024804 1.6610997 -0.27887923 0.94157463 3.1518083 0.036285363 -1.2213507 0.44869137 -1.7993838
曾经 0.20167673 0.44797355 -1.1058313 0.9724744 1.1496274 -0.18356016 -0.09721517 -0.048739947 0.08267636 -0.5787554 -0.8980074
更是 -0.05619306 0.67015386 -0.10404472 0.50931567 1.1441079 0.08007889 0.080053605 0.11646428 -0.38720953 -0.27128056 -1.4436756
于是 -0.37836406 0.38692513 -0.9018227 1.7837962 0.9946382 -0.16436635 0.20812891 0.53533024 0.66511905 -0.6010796 -1.3971726
海外 -0.5837514 0.78021884 0.26691315 0.2651687 1.5524207 -0.22173576 -1.3230387 0.35734126 -0.47958797 -0.4296159 -1.1578549
带领 -1.1390672 0.539878 -1.4762905 0.7024844 0.43216106 -0.51093304 -0.43926564 0.7590952 -0.12038381 -0.100456245 -1.3006033
本 -0.61103505 -0.384595 0.36189148 -0.04333539 0.64674264 0.199873 0.51498896 0.6161256 -0.44263902 -0.2010879 -1.0330591
长期 -0.17508817 0.9169744 -0.6404419 0.08750566 0.70801085 -0.13625146 -0.2987269 -0.032769244 -0.5316267 0.1662979 -1.4078205
属于 0.5165086 0.97621274 -0.95627546 0.4289309 1.1292812 -0.19618966 -0.49881145 -0.2611706 0.013211747 -0.30503416 -1.2704625
书 0.47554272 0.67798525 2.1604595 0.7784452 1.7847409 -0.9182634 0.7631777 -1.1858925 -0.563702 -0.6069721 -0.6843763
机构 -0.5734657 0.7301637 0.27645716 -0.6263278 1.0618846 0.36482057 -0.10677191 -0.2716836 -0.9116533 -0.16662022 -1.510291
余 -0.5984665 0.830946 -1.0696533 2.3039005 1.6253141 -0.28263274 -0.607817 2.9088511 -0.7424011 -0.3626028 -0.074878685
内心 0.13848904 -0.00093495095 -1.0951936 1.2681197 0.86476755 0.56893295 0.46553862 -0.008503043 -0.40839767 -0.46804833 -1.6656557
竟然 0.5506246 0.32878754 1.344358 1.7888296 2.329786 -0.38681632 1.274797 1.8276215 1.320342 -1.5748725 -2.1891522
点滴 -0.7099953 -0.40264267 0.13698223 1.1483351 2.3514242 -1.6690335 -0.6505559 1.3881477 -1.9178752 -0.08213687 0.19955595
项链 -1.0568571 0.48242474 -1.0891397 1.6741695 1.6165165 -0.80512613 0.8705481 2.0677404 -2.1141198 0.47220305 0.35074148
胡志诚 1.3702303 -0.5095475 0.87073845 1.3506962 0.44332647 0.071239755 0.28247347 0.4642593 -0.47114176 0.078831 -0.63436514
处理 -1.205333 0.76444334 -0.3686052 1.0692093 0.9537207 -0.1880155 -0.10846255 0.43955418 0.37319311 -0.17296033 -1.1858244
推广 -0.34599614 0.28701094 0.10754987 -0.63427603 0.9873849 0.5387896 0.020008182 0.25394812 -0.74976516 0.002518533 -0.9763199
走走 -0.8501221 0.7651152 -0.36935925 3.3023307 2.0698504 0.22905178 0.38194597 1.3651489 -0.44908538 -0.42192727 0.67511284
现代 0.049310375 1.2617798 0.5358838 -0.8187383 0.704623 0.44536078 0.10075148 -0.28653938 -1.5164001 0.49239185 -0.6560217
要学 -2.4837434 2.2299206 -1.9605316 2.278498 1.4075468 0.37213847 0.50762206 0.8444354 -0.41178682 0.00073598296 -0.422555
学生 0.1029768 0.027379256 -0.032561492 0.19108096 0.9317477 0.16671365 0.06829157 -0.2970763 -0.71648216 -0.2150968 -1.1571904
共欢 2.1519415 0.17350808 2.813011 0.29092214 0.55155766 -0.66326934 -1.3468095 1.059301 -2.275401 0.02056939 -0.98405457
语言 -0.27847525 -0.36529365 0.18875648 0.6023508 0.73097503 -0.15590876 0.59690744 0.08146042 -0.19935666 -0.0146817835 -1.3674543
百位 2.090843 0.14067966 2.7690058 0.5444804 1.2364972 -0.8928701 -1.605932 1.1656187 -1.72908 0.032056578 -0.81793517
精萃 0.6586999 1.1423609 2.5309482 0.81549376 1.824539 -0.9384216 -1.6036805 1.3416563 -1.3724269 0.8771796 -1.347597
评断 1.0534803 1.5278598 -2.3216054 0.7517543 1.6215532 0.14589766 0.5572184 -0.6641649 -0.98925555 0.43500778 -2.4870143
同学 -0.2224842 0.3068974 -1.0612162 1.5793254 1.518768 -0.6098506 -0.19705965 0.8018311 0.21071579 -0.6380084 -1.1542826
讶异 0.7264531 0.5371567 -0.22128554 1.9943476 2.1138685 -0.00447279 1.0121274 0.9484193 1.8143157 -1.0508498 -2.9894218
甚至于 0.55816025 0.8374303 1.1351188 1.8238169 2.058398 -0.08689233 1.1326644 2.0698895 1.104998 -1.5677818 -1.5549281
远距 -2.1161904 0.6505398 0.07129265 1.6990955 0.6532755 -0.37010723 -0.032534096 0.9769017 0.15007247 0.5002881 -0.93065274
David -0.3422124 0.33338565 -0.114975944 1.599504 0.896175 0.41718236 0.13911477 0.60563946 0.03902648 -0.28096062 -1.0554824
韭菜 -1.8789222 2.0741005 -2.1939745 0.7563364 1.012209 0.54507685 -0.12753321 0.019646954 -0.320889 0.29240695 -2.6292212
高潮迭起 0.37098464 0.31387028 -0.69854444 1.9091886 1.529744 0.0040036757 0.86353564 2.2216012 1.376603 -0.36491215 -2.8497012
充电站 -1.8746624 -0.08405875 0.5211772 0.64411426 1.1444174 -0.5290235 0.32974252 1.3500047 -0.18301591 0.039017204 -2.7205184
修 0.77403075 1.2813438 0.24042377 2.8468537 2.1996675 0.8787002 0.9104617 1.4715537 1.1249328 -1.5801929 -0.9238369
北 -1.1814709 0.3536483 -0.036166895 -0.51054597 1.3498074 1.0556957 3.338359 1.1063243 -1.9991761 -0.8981804 -1.1978902
自由 0.6539099 0.4264952 -0.6138645 0.28546038 1.235022 0.18961863 -0.098670565 -0.35922948 -0.43906942 -0.566116 -1.45944
关注 0.034061924 0.48812523 -0.13759156 -0.5428375 0.92216164 0.43640944 -0.14805429 0.074917234 -1.1644253 -0.037900936 -1.4818817
Miguel 2.444166 0.05650046 -0.91493505 1.8367014 1.5349839 0.7408429 0.8191748 2.7478352 -0.2985875 1.0751288 -2.0506535
专业 -0.45154503 0.29453236 0.3800925 -0.072504565 0.95414 0.46919218 0.028299062 0.5044101 -0.77489054 0.3790654 -0.96713924
说明 -0.451546 -0.22942628 0.3855319 0.15863125 0.7588492 0.29551572 0.7002142 0.9799694 0.083361275 0.3067637 -1.0570636
政治 -0.09311831 0.56225365 0.29141018 -0.022691472 1.0895197 0.37613663 0.67883843 -0.17243403 -0.49691066 -0.17829055 -1.7225547
遗失 0.21945849 0.6106217 1.226396 0.8360331 2.0244765 -0.50718945 -0.19407253 1.2437757 -0.3180464 1.5262263 -0.9148961
谈到 0.57214683 0.38463515 -0.06022131 1.7992512 2.6041706 1.0307164 1.0037427 0.37599495 0.9757917 -1.4012812 -1.3086576
健身运动 -0.15138267 -0.28685108 -1.4439923 -0.33990675 1.1269107 -1.5387747 1.3047332 1.3920116 -0.321699 0.588086 -3.7327578
认识 -0.26326618 0.4176572 -0.49048555 -0.109632075 1.2932485 -0.14742368 -0.121197164 0.24611135 -0.3014824 -0.34936756 -1.2374424
割 -2.7538056 2.1592631 -2.1426253 0.7778535 0.91842383 0.44332173 -0.24293599 0.019031338 -0.0705791 0.4306907 -2.1597488
间 0.25428617 0.32635197 -0.10923649 0.12879495 0.96245027 0.3528939 -0.010656531 -0.1141915 -1.0821643 0.044218004 -1.3683156
SR -0.9210058 0.21219176 1.1450984 0.77054715 2.3583443 -1.2950301 -0.26149863 2.1089046 -0.7937473 1.8577362 -0.6891189
师玛丽 -0.5247034 0.74064 0.47572023 1.996274 2.2853482 -0.804561 0.06611877 1.3604782 -0.67612976 -0.82013774 0.62170744
回味 -1.1176549 -1.1419265 -0.1929654 0.062400803 1.6054932 -1.5098797 0.68987685 2.0061693 -0.43634835 -0.7642774 -0.32573745
泛泪 0.6035366 1.2768742 0.94548213 2.2886505 2.1513827 0.45030528 0.8440438 1.9909453 1.1442201 -1.3382664 -1.2788644
眼眶 0.5423767 1.1710256 1.3814024 1.8766279 2.1254826 0.3211864 1.1362703 2.1863751 1.3465917 -1.6034447 -1.2662839
起 0.4170078 0.5104584 -0.45297983 0.51621366 0.62823117 0.4131184 0.39755312 0.2067617 -0.4717828 -0.2673751 -1.4293017
激动 0.5695148 0.6010089 1.5224183 1.5553246 2.2639453 -0.21667255 1.1920079 2.1646545 1.2137014 -1.5874383 -1.9779569
超爱 0.30722353 0.8483886 -0.64769816 2.460571 1.8485936 0.6163989 0.17583348 1.45453 0.8870005 -1.2926999 -0.6513428
新品 -1.0096289 0.05946199 -0.89767367 1.5751835 1.4786066 -0.85167336 1.0127867 2.03332 -1.9497687 0.64870596 0.022451207
逛逛 -1.0023756 0.61333877 -0.5569156 3.071584 1.9641691 -0.13356258 0.003920162 1.4418694 -0.60909015 -0.23948967 0.8928138
小语 -2.080136 1.21083 0.5528064 1.5348182 1.1874207 0.20114532 -0.08727116 0.6266519 -0.39821297 0.34839806 -1.3777441
STUDIO -0.7451177 0.30938408 1.2647197 0.84146327 2.4035368 -1.2326783 -0.29785344 2.202272 -0.7830498 1.9488957 -0.6413719
先买 -0.8523311 0.3208576 -0.36014864 1.5927625 2.5850625 1.3703647 1.4933656 1.4905034 0.32882938 -1.838931 -1.0306011
音乐季 -0.6431962 0.9053293 -0.5985445 1.7323179 2.6326654 1.2670062 0.31128666 1.2434865 0.50834626 -1.7580365 -0.46089935
出现 0.046464246 0.20390308 -0.77823436 0.5182515 0.8801136 -0.04704495 0.14980364 0.15517221 -0.27225184 -0.3987771 -1.5841165
吊饰 -1.2046752 0.28930914 -0.7884749 1.4600657 1.4588381 -0.44236225 0.9011057 2.4015672 -1.8325665 0.30511877 0.4850273
了解 0.5214892 0.85337734 -0.8253815 0.33984002 1.1295503 0.31796613 -0.8640466 0.31207094 0.07692011 -0.2713445 -1.3995843
三脉 -0.9346297 1.7889472 0.028818546 2.8211544 1.3068222 0.21643251 0.48862618 1.1108767 -0.9822358 0.70920676 -0.039673578
謦 -0.84532994 0.6965596 -1.0491358 2.3067622 1.744441 -0.31874058 -0.5130092 2.483524 -0.9132479 0.08897569 0.4324697
火典 -1.8368708 1.7456982 0.5535592 3.0138147 1.5286592 0.24037594 -0.20969446 0.81123567 -1.0392766 0.22281352 0.35448855
廷 -0.7220703 0.6900764 -0.91367584 2.3805163 1.5624257 -0.3823559 -0.34112054 2.7214458 -0.74127007 0.09285711 -0.08186853
目前 0.18162838 0.8579391 -0.44616807 0.9389279 1.0433716 0.019644452 0.04146505 -0.23434532 -0.36064923 -0.18673968 -1.0146633
这是 -0.100475185 0.4001701 -1.0636811 0.8203094 1.2929589 -0.1289949 -0.27523628 0.34201804 -0.05464657 -0.23765363 -1.451165
式 -0.20445022 0.5045774 0.41781238 -0.37667915 0.9842043 0.38904437 0.31258276 0.07731611 -1.2182487 -0.08015451 -1.0955844
最新消息 -1.4686567 -0.38444397 0.7188073 0.033384327 0.9462378 -0.9331891 0.9577002 1.590217 0.43929592 -0.025748083 -1.1999753
决定 -0.026692739 0.5649993 -0.57172644 1.6581234 0.7589709 0.10214898 0.6528758 0.08760114 0.47311535 -0.61192864 -1.4684836
阶段 -0.64717925 0.66161805 -0.9237888 1.06001 0.6865825 -0.26798546 0.0073837284 0.23257855 -0.3199626 -0.035752166 -1.5530488
完成 0.2021953 0.2876497 -0.1251088 0.7378665 0.94671196 -0.05807382 0.55598366 0.3218704 -0.24889633 -0.39933786 -1.7371993
规划 -0.49829638 0.50464994 0.03526526 -0.13614963 0.10720541 0.4228791 0.4998101 -0.20370013 -0.8328501 -0.11513823 -0.78206545
制作 0.01138174 0.46525308 0.19911167 -0.5322612 1.017812 0.23882239 -0.06992539 -0.30065256 -0.9900534 -0.32030153 -1.3295546
ONE 0.6660906 1.108843 0.3991607 -0.33144113 1.4050908 0.3241044 1.6296971 -0.27279407 -1.8954582 1.0833552 -0.40198985
看见 0.49979106 0.60549694 -0.63365984 0.044924982 1.0442772 -0.059067972 -0.6963934 -0.5550005 -0.3471416 0.010133436 -1.203092
人们 0.22938131 0.85713726 -0.8802034 0.6487345 1.5454359 0.13490015 -0.44256777 -0.23299786 -0.4724186 -0.2658314 -1.3655723
